{"learner":{"attributes":{"scikit_learn":"{\"_estimator_type\": \"regressor\"}"},"feature_names":["lag_1","lag_7","lag_30","rolling_7","rolling_14","day","month","dayofweek"],"feature_types":["float","float","float","float","float","int","int","int"],"gradient_booster":{"model":{"cats":{"enc":[],"feature_segments":[],"sorted_idx":[]},"gbtree_model_param":{"num_parallel_tree":"1","num_trees":"200"},"iteration_indptr":[0,1,2,3,4,5,6,7,8,9,10,11,12,13,14,15,16,17,18,19,20,21,22,23,24,25,26,27,28,29,30,31,32,33,34,35,36,37,38,39,40,41,42,43,44,45,46,47,48,49,50,51,52,53,54,55,56,57,58,59,60,61,62,63,64,65,66,67,68,69,70,71,72,73,74,75,76,77,78,79,80,81,82,83,84,85,86,87,88,89,90,91,92,93,94,95,96,97,98,99,100,101,102,103,104,105,106,107,108,109,110,111,112,113,114,115,116,117,118,119,120,121,122,123,124,125,126,127,128,129,130,131,132,133,134,135,136,137,138,139,140,141,142,143,144,145,146,147,148,149,150,151,152,153,154,155,156,157,158,159,160,161,162,163,164,165,166,167,168,169,170,171,172,173,174,175,176,177,178,179,180,181,182,183,184,185,186,187,188,189,190,191,192,193,194,195,196,197,198,199,200],"tree_info":[0,0,0,0,0,0,0,0,0,0,0,0,0,0,0,0,0,0,0,0,0,0,0,0,0,0,0,0,0,0,0,0,0,0,0,0,0,0,0,0,0,0,0,0,0,0,0,0,0,0,0,0,0,0,0,0,0,0,0,0,0,0,0,0,0,0,0,0,0,0,0,0,0,0,0,0,0,0,0,0,0,0,0,0,0,0,0,0,0,0,0,0,0,0,0,0,0,0,0,0,0,0,0,0,0,0,0,0,0,0,0,0,0,0,0,0,0,0,0,0,0,0,0,0,0,0,0,0,0,0,0,0,0,0,0,0,0,0,0,0,0,0,0,0,0,0,0,0,0,0,0,0,0,0,0,0,0,0,0,0,0,0,0,0,0,0,0,0,0,0,0,0,0,0,0,0,0,0,0,0,0,0,0,0,0,0,0,0,0,0,0,0,0,0,0,0,0,0,0,0],"trees":[{"base_weights":[1.7107073E-8,-7.8416216E-1,1.3276567E0,-1.5744818E0,-3.8759193E-1,1.754251E0,-1.1851747E0,-1.4151778E0,-2.4869614E0,-1.3302939E-1,-1.9005764E0,1.1350913E0,2.7273068E0,-1.8427647E0,-8.600581E-2,-2.1098914E0,-1.2520014E0,-2.22978E-3,-1.2742214E-1,-4.8716137E-1,2.2764082E-1,-9.9842525E-1,-2.0299275E0,1.3862547E0,2.78962E-1,2.2421732E0,4.1630383E0,-2.0342126E0,-7.0304227E-1,-8.3361673E-1,8.407466E-1,-1.2361765E0,-2.398904E0,-1.3898587E0,-4.7341084E-1,-3.9896345E-1,-1.2011454E0,3.9144835E-1,-6.978248E-1,-1.3538102E0,7.277022E-2,-2.3796988E0,-1.465426E0,1.1961977E0,2.2188418E0,-6.977149E-1,5.376669E-1,2.9439704E0,1.4928925E0,5.631465E0,3.2474453E0,-2.1152143E0,-8.168934E-1,4.665533E-2,-1.8713529E0,-1.1592534E0,4.331066E-1,1.19727924E-1,2.4331064E0,-8.901361E-2,2.165533E-2,-1.3344042E-1,-7.063072E-2,-6.546956E-2,-1.1180883E-1,8.036029E-2,-3.3616126E-2,6.974619E-3,-2.4328059E-2,-1.0965337E-2,-7.423659E-2,-1.9916015E-2,3.0695248E-2,-7.6004796E-2,3.5144698E-2,-9.285294E-2,3.0360295E-2,-1.2059807E-1,-2.722978E-2,-8.758053E-2,-3.174183E-2,1.0107217E-1,4.349427E-2,5.710678E-2,1.825044E-1,-5.9519608E-2,1.6432352E-2,9.62837E-2,1.6574383E-2,1.9207518E-1,5.4834057E-2,8.222722E-2,3.3203773E-3,2.9972965E-1,2.277022E-2,1.9826342E-1,5.2347887E-2,-8.834776E-2,-1.255696E-1,-2.22978E-3,-5.297304E-2,-1.0334467E-1,-2.722978E-2,-6.7690514E-2,-2.97304E-3,4.702696E-2,-2.722978E-2,2.3813725E-2,-7.722978E-2,1.7277022E-1,4.702696E-2],"categories":[],"categories_nodes":[],"categories_segments":[],"categories_sizes":[],"default_left":[0,0,0,0,0,0,0,0,0,0,0,0,0,0,0,0,0,0,0,0,0,0,0,0,0,0,0,0,0,0,0,0,0,0,0,0,0,0,0,0,0,0,0,0,0,0,0,0,0,0,0,0,0,0,0,0,0,0,0,0,0,0,0,0,0,0,0,0,0,0,0,0,0,0,0,0,0,0,0,0,0,0,0,0,0,0,0,0,0,0,0,0,0,0,0,0,0,0,0,0,0,0,0,0,0,0,0,0,0,0,0],"id":0,"left_children":[1,3,5,7,9,11,13,15,17,19,21,23,25,27,29,31,33,-1,-1,35,37,39,41,43,45,47,49,51,53,55,57,59,61,63,65,67,69,71,73,75,-1,77,79,81,83,85,87,89,91,93,95,97,99,-1,101,103,105,107,109,-1,-1,-1,-1,-1,-1,-1,-1,-1,-1,-1,-1,-1,-1,-1,-1,-1,-1,-1,-1,-1,-1,-1,-1,-1,-1,-1,-1,-1,-1,-1,-1,-1,-1,-1,-1,-1,-1,-1,-1,-1,-1,-1,-1,-1,-1,-1,-1,-1,-1,-1,-1],"loss_changes":[1.3794551E3,2.6046637E2,5.294832E2,3.689099E1,2.138901E2,2.50547E2,5.18833E1,2.445163E1,5.892761E0,6.1035652E1,7.308838E0,5.5305603E1,1.0419885E2,8.388733E0,2.0100666E1,8.145187E0,2.0379578E1,0E0,0E0,1.469701E1,3.6201946E1,1.2434991E1,1.0136536E1,2.8993622E1,1.5535408E1,6.080951E1,3.5491333E1,2.019104E0,1.7038414E1,7.101945E0,1.4634266E1,1.2578291E1,4.748535E0,8.37677E0,1.3910189E1,1.025605E1,6.913727E0,3.5733757E1,4.25322E1,1.1983282E1,0E0,1.1138763E0,5.781372E0,4.2674103E1,5.1308243E1,6.964866E0,1.3098222E1,1.0024133E2,1.3303192E1,2.3584015E1,3.8496643E1,3.9152527E-1,7.020898E-1,0E0,1.7155266E-1,2.7011395E0,2.4966855E0,6.6697397E0,2.8534489E0,0E0,0E0,0E0,0E0,0E0,0E0,0E0,0E0,0E0,0E0,0E0,0E0,0E0,0E0,0E0,0E0,0E0,0E0,0E0,0E0,0E0,0E0,0E0,0E0,0E0,0E0,0E0,0E0,0E0,0E0,0E0,0E0,0E0,0E0,0E0,0E0,0E0,0E0,0E0,0E0,0E0,0E0,0E0,0E0,0E0,0E0,0E0,0E0,0E0,0E0,0E0,0E0],"parents":[2147483647,0,0,1,1,2,2,3,3,4,4,5,5,6,6,7,7,8,8,9,9,10,10,11,11,12,12,13,13,14,14,15,15,16,16,19,19,20,20,21,21,22,22,23,23,24,24,25,25,26,26,27,27,28,28,29,29,30,30,31,31,32,32,33,33,34,34,35,35,36,36,37,37,38,38,39,39,41,41,42,42,43,43,44,44,45,45,46,46,47,47,48,48,49,49,50,50,51,51,52,52,54,54,55,55,56,56,57,57,58,58],"right_children":[2,4,6,8,10,12,14,16,18,20,22,24,26,28,30,32,34,-1,-1,36,38,40,42,44,46,48,50,52,54,56,58,60,62,64,66,68,70,72,74,76,-1,78,80,82,84,86,88,90,92,94,96,98,100,-1,102,104,106,108,110,-1,-1,-1,-1,-1,-1,-1,-1,-1,-1,-1,-1,-1,-1,-1,-1,-1,-1,-1,-1,-1,-1,-1,-1,-1,-1,-1,-1,-1,-1,-1,-1,-1,-1,-1,-1,-1,-1,-1,-1,-1,-1,-1,-1,-1,-1,-1,-1,-1,-1,-1,-1],"split_conditions":[3.4285715E0,2.142857E0,6E0,6E0,6E0,4.571429E0,4.285714E0,1.2857143E0,1.1428572E0,2.7142856E0,3E0,6E0,5.357143E0,1.1E1,5E0,2E0,5E0,-2.22978E-3,-1.2742214E-1,5E0,6E0,6E0,2.857143E0,2.5E1,2E0,3E0,5E0,4E0,4E0,2.5E1,5.428571E0,1.9E1,5E0,5E0,2E0,1E0,2.2857144E0,1E0,9E0,6E0,7.277022E-2,4E0,3.2142856E0,2E0,3.857143E0,3.5E0,1E0,5E0,1.2E1,9E0,5E0,3.7142856E0,2E0,4.665533E-2,4E0,1E1,3E0,5.142857E0,5E0,-8.901361E-2,2.165533E-2,-1.3344042E-1,-7.063072E-2,-6.546956E-2,-1.1180883E-1,8.036029E-2,-3.3616126E-2,6.974619E-3,-2.4328059E-2,-1.0965337E-2,-7.423659E-2,-1.9916015E-2,3.0695248E-2,-7.6004796E-2,3.5144698E-2,-9.285294E-2,3.0360295E-2,-1.2059807E-1,-2.722978E-2,-8.758053E-2,-3.174183E-2,1.0107217E-1,4.349427E-2,5.710678E-2,1.825044E-1,-5.9519608E-2,1.6432352E-2,9.62837E-2,1.6574383E-2,1.9207518E-1,5.4834057E-2,8.222722E-2,3.3203773E-3,2.9972965E-1,2.277022E-2,1.9826342E-1,5.2347887E-2,-8.834776E-2,-1.255696E-1,-2.22978E-3,-5.297304E-2,-1.0334467E-1,-2.722978E-2,-6.7690514E-2,-2.97304E-3,4.702696E-2,-2.722978E-2,2.3813725E-2,-7.722978E-2,1.7277022E-1,4.702696E-2],"split_indices":[3,3,7,7,7,3,4,3,4,3,6,0,4,6,6,7,7,0,0,0,0,2,3,5,1,7,0,1,4,5,3,5,2,0,6,1,3,7,6,0,0,1,4,2,3,4,2,0,6,2,6,4,2,0,0,0,1,3,2,0,0,0,0,0,0,0,0,0,0,0,0,0,0,0,0,0,0,0,0,0,0,0,0,0,0,0,0,0,0,0,0,0,0,0,0,0,0,0,0,0,0,0,0,0,0,0,0,0,0,0,0],"split_type":[0,0,0,0,0,0,0,0,0,0,0,0,0,0,0,0,0,0,0,0,0,0,0,0,0,0,0,0,0,0,0,0,0,0,0,0,0,0,0,0,0,0,0,0,0,0,0,0,0,0,0,0,0,0,0,0,0,0,0,0,0,0,0,0,0,0,0,0,0,0,0,0,0,0,0,0,0,0,0,0,0,0,0,0,0,0,0,0,0,0,0,0,0,0,0,0,0,0,0,0,0,0,0,0,0,0,0,0,0,0,0],"sum_hessian":[1.323E3,8.32E2,4.91E2,2.77E2,5.55E2,4.2E2,7.1E1,2.38E2,3.9E1,4.76E2,7.9E1,2.58E2,1.62E2,4.4E1,2.7E1,4.3E1,1.95E2,1E0,3.8E1,2.4E2,2.36E2,1.1E1,6.8E1,1.99E2,5.9E1,1.23E2,3.9E1,3.7E1,7E0,1.5E1,1.2E1,1.2E1,3.1E1,1.65E2,3E1,2.15E2,2.5E1,2.01E2,3.5E1,1E1,1E0,4E1,2.8E1,1.64E2,3.5E1,1.2E1,4.7E1,6.2E1,6.1E1,1.3E1,2.6E1,3.4E1,3E0,3E0,4E0,1.2E1,3E0,9E0,3E0,9E0,3E0,2.3E1,8E0,1.53E2,1.2E1,2E0,2.8E1,3E1,1.85E2,6E0,1.9E1,4.4E1,1.57E2,2.2E1,1.3E1,8E0,2E0,3.9E1,1E0,2E1,8E0,4.5E1,1.19E2,2.1E1,1.4E1,8E0,4E0,5E0,4.2E1,4.1E1,2.1E1,5.5E1,6E0,1.2E1,1E0,1.9E1,7E0,2.1E1,1.3E1,1E0,2E0,3E0,1E0,1E1,2E0,2E0,1E0,8E0,1E0,1E0,2E0],"tree_param":{"num_deleted":"0","num_feature":"8","num_nodes":"111","size_leaf_vector":"1"}},{"base_weights":[1.5173704E-4,-7.4605983E-1,1.2635545E0,-1.49767E0,-3.689129E-1,1.6697677E0,-1.1292149E0,-1.3461008E0,-2.3658547E0,-1.2665598E-1,-1.8087584E0,1.0800896E0,2.5964973E0,-1.7584718E0,-7.757993E-2,-2.0105655E0,-1.1900674E0,-2.1740377E-3,-1.2121439E-1,-5.446432E-1,1.543937E-1,-9.476476E-1,-1.932303E0,1.3188629E0,2.6617673E-1,2.1327457E0,3.9692144E0,-1.939584E0,-6.7838013E-1,-7.95115E-1,8.115078E-1,-8.82478E-1,-2.200137E0,-1.3214338E0,-4.4823247E-1,-9.124265E-1,-2.8499833E-1,2.9075778E-1,-7.1670085E-1,-1.2918009E0,7.095097E-2,-2.2643194E0,-1.3962693E0,1.1372641E0,2.1145556E0,-6.6614366E-1,5.1313484E-1,2.8006911E0,1.4196277E0,3.1137912E0,5.5063405E0,-2.0155656E0,-7.8984946E-1,4.4905752E-2,-1.8039002E0,-1.1067263E0,4.164006E-1,1.0839991E-1,2.3664007E0,-7.930239E-2,1.0880194E-2,-1.2192615E-1,-6.5632105E-2,-6.906357E-2,-2.1920579E-2,7.768162E-2,-3.199328E-2,-5.9539694E-2,-2.4415726E-2,-2.2034154E-3,-4.7906674E-2,-2.1696879E-2,2.4028601E-2,-7.179801E-2,3.3512972E-2,-8.8726155E-2,2.9348288E-2,-1.1483562E-1,-2.4214828E-2,-7.408964E-2,2.4959732E-2,9.612843E-2,4.133768E-2,5.4381233E-2,1.7398755E-1,-5.68743E-2,1.577506E-2,5.012616E-2,-9.0126693E-4,1.827001E-1,5.2216973E-2,7.8189276E-2,3.178072E-3,2.2822769E-1,6.6849455E-2,-3.5384775E-3,2.9884988E-1,-8.4131174E-2,-1.19739585E-1,-2.1740377E-3,-5.1207274E-2,-9.9469244E-2,-2.6549036E-2,-6.461366E-2,-2.8739374E-3,4.54594E-2,-2.6549036E-2,2.2755338E-2,-7.529904E-2,1.6845097E-1,4.54594E-2],"categories":[],"categories_nodes":[],"categories_segments":[],"categories_sizes":[],"default_left":[0,0,0,0,0,0,0,0,0,0,0,0,0,0,0,0,0,0,0,0,0,0,0,0,0,0,0,0,0,0,0,0,0,0,0,0,0,0,0,0,0,0,0,0,0,0,0,0,0,0,0,0,0,0,0,0,0,0,0,0,0,0,0,0,0,0,0,0,0,0,0,0,0,0,0,0,0,0,0,0,0,0,0,0,0,0,0,0,0,0,0,0,0,0,0,0,0,0,0,0,0,0,0,0,0,0,0,0,0,0,0],"id":1,"left_children":[1,3,5,7,9,11,13,15,17,19,21,23,25,27,29,31,33,-1,-1,35,37,39,41,43,45,47,49,51,53,55,57,59,61,63,65,67,69,71,73,75,-1,77,79,81,83,85,87,89,91,93,95,97,99,-1,101,103,105,107,109,-1,-1,-1,-1,-1,-1,-1,-1,-1,-1,-1,-1,-1,-1,-1,-1,-1,-1,-1,-1,-1,-1,-1,-1,-1,-1,-1,-1,-1,-1,-1,-1,-1,-1,-1,-1,-1,-1,-1,-1,-1,-1,-1,-1,-1,-1,-1,-1,-1,-1,-1,-1],"loss_changes":[1.2491646E3,2.3557599E2,4.8009717E2,3.339734E1,1.9371071E2,2.2726038E2,4.7509468E1,2.2386536E1,5.3227234E0,5.611975E1,6.6796875E0,4.9983185E1,9.530029E1,7.48703E0,1.8507887E1,7.4679565E0,1.85083E1,0E0,0E0,1.8074627E1,3.4181187E1,1.1607044E1,9.118439E0,2.6494568E1,1.4156466E1,5.5088257E1,3.5450195E1,1.7276306E0,1.58151245E1,6.501193E0,1.3955829E1,6.537006E0,4.62706E0,8.165527E0,1.2886452E1,8.745171E0,1.8446121E1,3.4322792E1,3.9868248E1,1.1017727E1,0E0,1.2518005E0,5.4407997E0,3.864499E1,4.6685944E1,6.373858E0,1.2495362E1,9.0602936E1,1.2020821E1,6.607333E1,3.4546722E1,3.895874E-1,6.549542E-1,0E0,1.24212265E-1,2.456623E0,2.3501916E0,6.2825494E0,2.781044E0,0E0,0E0,0E0,0E0,0E0,0E0,0E0,0E0,0E0,0E0,0E0,0E0,0E0,0E0,0E0,0E0,0E0,0E0,0E0,0E0,0E0,0E0,0E0,0E0,0E0,0E0,0E0,0E0,0E0,0E0,0E0,0E0,0E0,0E0,0E0,0E0,0E0,0E0,0E0,0E0,0E0,0E0,0E0,0E0,0E0,0E0,0E0,0E0,0E0,0E0,0E0,0E0],"parents":[2147483647,0,0,1,1,2,2,3,3,4,4,5,5,6,6,7,7,8,8,9,9,10,10,11,11,12,12,13,13,14,14,15,15,16,16,19,19,20,20,21,21,22,22,23,23,24,24,25,25,26,26,27,27,28,28,29,29,30,30,31,31,32,32,33,33,34,34,35,35,36,36,37,37,38,38,39,39,41,41,42,42,43,43,44,44,45,45,46,46,47,47,48,48,49,49,50,50,51,51,52,52,54,54,55,55,56,56,57,57,58,58],"right_children":[2,4,6,8,10,12,14,16,18,20,22,24,26,28,30,32,34,-1,-1,36,38,40,42,44,46,48,50,52,54,56,58,60,62,64,66,68,70,72,74,76,-1,78,80,82,84,86,88,90,92,94,96,98,100,-1,102,104,106,108,110,-1,-1,-1,-1,-1,-1,-1,-1,-1,-1,-1,-1,-1,-1,-1,-1,-1,-1,-1,-1,-1,-1,-1,-1,-1,-1,-1,-1,-1,-1,-1,-1,-1,-1,-1,-1,-1,-1,-1,-1,-1,-1,-1,-1,-1,-1,-1,-1,-1,-1,-1,-1],"split_conditions":[3.4285715E0,2.142857E0,6E0,6E0,6E0,4.571429E0,4.285714E0,1.2857143E0,1.1428572E0,2.5714285E0,3E0,6E0,5.357143E0,1.1E1,5E0,1E0,5E0,-2.1740377E-3,-1.2121439E-1,2E0,6E0,6E0,2.857143E0,2.5E1,2E0,3E0,6.285714E0,4E0,4E0,2.5E1,5.428571E0,1.2E1,1.8571428E0,6E0,2E0,2E1,5E0,1E0,9E0,6E0,7.095097E-2,3E1,1E1,2E0,3.857143E0,3.5E0,3.642857E0,5E0,1.2E1,5.642857E0,2E0,3.7142856E0,2E0,4.4905752E-2,4E0,1E1,3E0,5.142857E0,5E0,-7.930239E-2,1.0880194E-2,-1.2192615E-1,-6.5632105E-2,-6.906357E-2,-2.1920579E-2,7.768162E-2,-3.199328E-2,-5.9539694E-2,-2.4415726E-2,-2.2034154E-3,-4.7906674E-2,-2.1696879E-2,2.4028601E-2,-7.179801E-2,3.3512972E-2,-8.8726155E-2,2.9348288E-2,-1.1483562E-1,-2.4214828E-2,-7.408964E-2,2.4959732E-2,9.612843E-2,4.133768E-2,5.4381233E-2,1.7398755E-1,-5.68743E-2,1.577506E-2,5.012616E-2,-9.0126693E-4,1.827001E-1,5.2216973E-2,7.8189276E-2,3.178072E-3,2.2822769E-1,6.6849455E-2,-3.5384775E-3,2.9884988E-1,-8.4131174E-2,-1.19739585E-1,-2.1740377E-3,-5.1207274E-2,-9.9469244E-2,-2.6549036E-2,-6.461366E-2,-2.8739374E-3,4.54594E-2,-2.6549036E-2,2.2755338E-2,-7.529904E-2,1.6845097E-1,4.54594E-2],"split_indices":[3,3,7,7,7,3,4,3,4,3,6,0,4,6,6,1,7,0,0,2,0,2,3,5,1,7,3,1,4,5,3,5,4,2,6,5,2,7,6,0,0,5,2,2,3,4,4,0,6,4,1,4,2,0,0,0,1,3,2,0,0,0,0,0,0,0,0,0,0,0,0,0,0,0,0,0,0,0,0,0,0,0,0,0,0,0,0,0,0,0,0,0,0,0,0,0,0,0,0,0,0,0,0,0,0,0,0,0,0,0,0],"split_type":[0,0,0,0,0,0,0,0,0,0,0,0,0,0,0,0,0,0,0,0,0,0,0,0,0,0,0,0,0,0,0,0,0,0,0,0,0,0,0,0,0,0,0,0,0,0,0,0,0,0,0,0,0,0,0,0,0,0,0,0,0,0,0,0,0,0,0,0,0,0,0,0,0,0,0,0,0,0,0,0,0,0,0,0,0,0,0,0,0,0,0,0,0,0,0,0,0,0,0,0,0,0,0,0,0,0,0,0,0,0,0],"sum_hessian":[1.323E3,8.32E2,4.91E2,2.77E2,5.55E2,4.2E2,7.1E1,2.38E2,3.9E1,4.76E2,7.9E1,2.58E2,1.62E2,4.4E1,2.7E1,4.3E1,1.95E2,1E0,3.8E1,1.91E2,2.85E2,1.1E1,6.8E1,1.99E2,5.9E1,1.23E2,3.9E1,3.7E1,7E0,1.5E1,1.2E1,7E0,3.6E1,1.65E2,3E1,7.8E1,1.13E2,2.47E2,3.8E1,1E1,1E0,4E1,2.8E1,1.64E2,3.5E1,1.2E1,4.7E1,6.2E1,6.1E1,2.7E1,1.2E1,3.4E1,3E0,3E0,4E0,1.2E1,3E0,9E0,3E0,4E0,3E0,2.7E1,9E0,1.54E2,1.1E1,2E0,2.8E1,4.6E1,3.2E1,8.4E1,2.9E1,5.1E1,1.96E2,2.5E1,1.3E1,8E0,2E0,3.9E1,1E0,2.7E1,1E0,4.5E1,1.19E2,2.1E1,1.4E1,8E0,4E0,2.4E1,2.3E1,4.1E1,2.1E1,5.5E1,6E0,1.4E1,1.3E1,1E0,1.1E1,2.1E1,1.3E1,1E0,2E0,3E0,1E0,1E1,2E0,2E0,1E0,8E0,1E0,1E0,2E0],"tree_param":{"num_deleted":"0","num_feature":"8","num_nodes":"111","size_leaf_vector":"1"}},{"base_weights":[3.5848448E-4,-7.0968276E-1,1.2025211E0,-1.4243141E0,-3.5109067E-1,1.5893213E0,-1.0758871E0,-1.2800564E0,-2.2506466E0,-1.2067959E-1,-1.7205281E0,1.0275289E0,2.4722347E0,-1.6780674E0,-6.96728E-2,-1.9158552E0,-1.130795E0,-2.1196844E-3,-2.3061814E0,-3.7934893E-1,3.006765E-1,-8.993009E-1,-1.838415E0,1.254749E0,2.5300336E-1,2.2004542E0,4.67691E0,-1.8493745E0,-6.5460014E-1,-7.583954E-1,7.833452E-1,-1.1080337E0,-2.1841621E0,-1.2559102E0,-4.2434692E-1,-1.367129E0,-1.2020339E-1,-3.1025723E-1,-1.1158929E0,-3.8945045E-2,8.8419026E-1,-1.2326089E0,6.9177195E-2,-2.1544948E0,-1.32815E0,1.0812341E0,2.0151715E0,-6.359979E-1,4.8850363E-1,2.8299646E0,1.523554E0,1.2329097E0,6.0091677E0,-1.9206121E0,-7.637023E-1,4.322179E-2,-1.7389089E0,-1.3037357E0,-5.0088078E-2,9.772551E-2,2.301558E0,-8.096141E-2,2.2348056E-2,-1.2173354E-1,-6.3672744E-2,-5.8954954E-2,-1.0346086E-1,7.509224E-2,-3.0448774E-2,-8.362219E-2,3.9861323E-3,1.2847199E-2,-2.0457903E-2,-2.636098E-2,-7.365968E-2,-5.8025415E-3,1.4520283E-1,9.539469E-2,-5.3139306E-3,-8.478277E-2,2.8370008E-2,-1.0923739E-1,-2.360946E-2,-8.01178E-2,-2.7038215E-2,9.142649E-2,3.928802E-2,5.1785775E-2,1.6586812E-1,-5.434655E-2,1.5144062E-2,9.0183295E-2,1.4681603E-2,1.8516277E-1,6.58523E-2,9.0013914E-2,-3.2214727E-2,7.1258396E-3,1.1378985E-1,3.632573E-1,8.404624E-2,-8.011582E-2,-1.14180245E-1,-2.1196844E-3,-4.950036E-2,-9.573915E-2,-2.5885308E-2,-7.728463E-2,-1.5229567E-2,-2.5311247E-2,4.3944083E-2,2.1743987E-2,-7.341656E-2,1.6423969E-1,4.3944083E-2],"categories":[],"categories_nodes":[],"categories_segments":[],"categories_sizes":[],"default_left":[0,0,0,0,0,0,0,0,0,0,0,0,0,0,0,0,0,0,0,0,0,0,0,0,0,0,0,0,0,0,0,0,0,0,0,0,0,0,0,0,0,0,0,0,0,0,0,0,0,0,0,0,0,0,0,0,0,0,0,0,0,0,0,0,0,0,0,0,0,0,0,0,0,0,0,0,0,0,0,0,0,0,0,0,0,0,0,0,0,0,0,0,0,0,0,0,0,0,0,0,0,0,0,0,0,0,0,0,0,0,0,0,0,0,0],"id":2,"left_children":[1,3,5,7,9,11,13,15,17,19,21,23,25,27,29,31,33,-1,35,37,39,41,43,45,47,49,51,53,55,57,59,61,63,65,67,69,-1,71,73,75,77,79,-1,81,83,85,87,89,91,93,95,97,99,101,103,-1,105,107,109,111,113,-1,-1,-1,-1,-1,-1,-1,-1,-1,-1,-1,-1,-1,-1,-1,-1,-1,-1,-1,-1,-1,-1,-1,-1,-1,-1,-1,-1,-1,-1,-1,-1,-1,-1,-1,-1,-1,-1,-1,-1,-1,-1,-1,-1,-1,-1,-1,-1,-1,-1,-1,-1,-1,-1],"loss_changes":[1.131E3,2.1296548E2,4.3530408E2,3.0258057E1,1.7522903E2,2.0628162E2,4.350949E1,2.0514679E1,4.8076324E0,5.2103195E1,6.091675E0,4.5263367E1,8.737622E1,6.679138E0,1.7043882E1,7.1166077E0,1.6790985E1,0E0,2.9821777E-1,1.4716961E1,3.610207E1,1.0836054E1,8.267136E0,2.4210052E1,1.2872289E1,5.8327454E1,7.0592255E1,1.472168E0,1.4680006E1,6.114995E0,1.3306995E1,1.1057495E1,4.2000427E0,7.930359E0,1.1939116E1,2.783804E0,0E0,1.5363424E1,4.48164E0,2.6660023E1,6.813719E1,1.013048E1,0E0,1.055069E0,5.3947754E0,3.4996246E1,4.2479965E1,5.833042E0,1.1772196E1,9.421399E1,4.4952347E1,6.498602E0,5.3021973E1,3.8479614E-1,6.1097264E-1,0E0,8.259487E-2,1.7049437E0,3.83481E0,5.9185734E0,2.7083607E0,0E0,0E0,0E0,0E0,0E0,0E0,0E0,0E0,0E0,0E0,0E0,0E0,0E0,0E0,0E0,0E0,0E0,0E0,0E0,0E0,0E0,0E0,0E0,0E0,0E0,0E0,0E0,0E0,0E0,0E0,0E0,0E0,0E0,0E0,0E0,0E0,0E0,0E0,0E0,0E0,0E0,0E0,0E0,0E0,0E0,0E0,0E0,0E0,0E0,0E0,0E0,0E0,0E0,0E0],"parents":[2147483647,0,0,1,1,2,2,3,3,4,4,5,5,6,6,7,7,8,8,9,9,10,10,11,11,12,12,13,13,14,14,15,15,16,16,18,18,19,19,20,20,21,21,22,22,23,23,24,24,25,25,26,26,27,27,28,28,29,29,30,30,31,31,32,32,33,33,34,34,35,35,37,37,38,38,39,39,40,40,41,41,43,43,44,44,45,45,46,46,47,47,48,48,49,49,50,50,51,51,52,52,53,53,54,54,56,56,57,57,58,58,59,59,60,60],"right_children":[2,4,6,8,10,12,14,16,18,20,22,24,26,28,30,32,34,-1,36,38,40,42,44,46,48,50,52,54,56,58,60,62,64,66,68,70,-1,72,74,76,78,80,-1,82,84,86,88,90,92,94,96,98,100,102,104,-1,106,108,110,112,114,-1,-1,-1,-1,-1,-1,-1,-1,-1,-1,-1,-1,-1,-1,-1,-1,-1,-1,-1,-1,-1,-1,-1,-1,-1,-1,-1,-1,-1,-1,-1,-1,-1,-1,-1,-1,-1,-1,-1,-1,-1,-1,-1,-1,-1,-1,-1,-1,-1,-1,-1,-1,-1,-1],"split_conditions":[3.4285715E0,2.142857E0,6E0,6E0,6E0,4.571429E0,4.285714E0,1.2857143E0,1.1428572E0,2.857143E0,3E0,6E0,6.285714E0,1.1E1,5E0,2E0,5E0,-2.1196844E-3,1E0,6E0,4E0,6E0,2.857143E0,2.5E1,2E0,3E0,2E0,4E0,4E0,5.285714E0,5.428571E0,1.9E1,5E0,5E0,2E0,1.9285715E0,-1.2020339E-1,1E0,6E0,1.1E1,1.5E1,6E0,6.9177195E-2,3E1,3.2142856E0,2E0,3.857143E0,3.5E0,1E0,5E0,6E0,3E0,6E0,3.7142856E0,2E0,4.322179E-2,4E0,4.857143E0,2.1E1,5.142857E0,5E0,-8.096141E-2,2.2348056E-2,-1.2173354E-1,-6.3672744E-2,-5.8954954E-2,-1.0346086E-1,7.509224E-2,-3.0448774E-2,-8.362219E-2,3.9861323E-3,1.2847199E-2,-2.0457903E-2,-2.636098E-2,-7.365968E-2,-5.8025415E-3,1.4520283E-1,9.539469E-2,-5.3139306E-3,-8.478277E-2,2.8370008E-2,-1.0923739E-1,-2.360946E-2,-8.01178E-2,-2.7038215E-2,9.142649E-2,3.928802E-2,5.1785775E-2,1.6586812E-1,-5.434655E-2,1.5144062E-2,9.0183295E-2,1.4681603E-2,1.8516277E-1,6.58523E-2,9.0013914E-2,-3.2214727E-2,7.1258396E-3,1.1378985E-1,3.632573E-1,8.404624E-2,-8.011582E-2,-1.14180245E-1,-2.1196844E-3,-4.950036E-2,-9.573915E-2,-2.5885308E-2,-7.728463E-2,-1.5229567E-2,-2.5311247E-2,4.3944083E-2,2.1743987E-2,-7.341656E-2,1.6423969E-1,4.3944083E-2],"split_indices":[3,3,7,7,7,3,4,3,4,3,6,0,3,6,6,7,7,0,2,0,7,2,3,5,1,7,2,1,4,3,3,5,2,0,6,4,0,1,6,2,5,0,0,5,4,2,3,4,2,0,3,1,2,4,2,0,0,4,5,3,2,0,0,0,0,0,0,0,0,0,0,0,0,0,0,0,0,0,0,0,0,0,0,0,0,0,0,0,0,0,0,0,0,0,0,0,0,0,0,0,0,0,0,0,0,0,0,0,0,0,0,0,0,0,0],"split_type":[0,0,0,0,0,0,0,0,0,0,0,0,0,0,0,0,0,0,0,0,0,0,0,0,0,0,0,0,0,0,0,0,0,0,0,0,0,0,0,0,0,0,0,0,0,0,0,0,0,0,0,0,0,0,0,0,0,0,0,0,0,0,0,0,0,0,0,0,0,0,0,0,0,0,0,0,0,0,0,0,0,0,0,0,0,0,0,0,0,0,0,0,0,0,0,0,0,0,0,0,0,0,0,0,0,0,0,0,0,0,0,0,0,0,0],"sum_hessian":[1.323E3,8.32E2,4.91E2,2.77E2,5.55E2,4.2E2,7.1E1,2.38E2,3.9E1,4.76E2,7.9E1,2.58E2,1.62E2,4.4E1,2.7E1,4.3E1,1.95E2,1E0,3.8E1,2.95E2,1.81E2,1.1E1,6.8E1,1.99E2,5.9E1,1.46E2,1.6E1,3.7E1,7E0,1.5E1,1.2E1,1.2E1,3.1E1,1.65E2,3E1,5E0,3.3E1,2.71E2,2.4E1,1.15E2,6.6E1,1E1,1E0,4E1,2.8E1,1.64E2,3.5E1,1.2E1,4.7E1,7.4E1,7.2E1,5E0,1.1E1,3.4E1,3E0,3E0,4E0,8E0,7E0,9E0,3E0,9E0,3E0,2.3E1,8E0,1.53E2,1.2E1,2E0,2.8E1,4E0,1E0,4E1,2.31E2,1E1,1.4E1,1.13E2,2E0,3.2E1,3.4E1,8E0,2E0,3.9E1,1E0,2E1,8E0,4.5E1,1.19E2,2.1E1,1.4E1,8E0,4E0,5E0,4.2E1,4.6E1,2.8E1,6.4E1,8E0,3E0,2E0,8E0,3E0,2.1E1,1.3E1,1E0,2E0,3E0,1E0,6E0,2E0,5E0,2E0,8E0,1E0,1E0,2E0],"tree_param":{"num_deleted":"0","num_feature":"8","num_nodes":"115","size_leaf_vector":"1"}},{"base_weights":[6.277716E-4,-6.7500186E-1,1.1445279E0,-1.2215338E0,-2.5029418E-1,1.5129218E0,-1.0254495E0,-1.0697154E0,-2.111873E0,-2.665446E-2,-1.5720075E0,1.2562015E0,3.3507714E0,-1.6013712E0,-6.323814E-2,-1.4208491E0,-7.206874E-1,-2.0666898E-3,-1.0758306E-1,8.425555E-2,-8.296422E-1,-6.593606E-1,-1.7000493E0,1.1194849E0,2.8299112E0,2.7060595E0,5.0271554E0,-1.7633773E0,-6.316705E-1,-7.2509325E-1,7.5621724E-1,-1.6877118E0,-1.1562126E0,-5.3339267E-1,-1.3457947E0,-2.6652285E-1,3.5126355E-1,-1.3115599E0,4.6883494E-1,-1.0323907E0,6.744777E-2,-2.0517812E0,-1.2654377E0,1.3653454E0,3.0737638E-1,6.097858E0,1.8950117E0,3.5835288E0,6.7546487E-1,5.686164E0,4.6753574E-2,-1.8301328E0,-7.384221E-1,4.1600976E-2,-1.6762884E0,-1.2488283E0,-4.5254588E-2,8.767195E-2,2.238526E0,-5.3412456E-2,-9.254303E-2,-6.0642194E-2,3.602418E-2,-2.1493342E-2,-7.319059E-2,-7.534554E-2,1.5993118E-2,-2.7670184E-2,4.7450685E-3,3.6720142E-3,4.428568E-2,-8.525247E-2,-4.3487545E-2,-2.9117554E-2,8.01607E-2,-7.812127E-2,2.7424345E-2,-1.0461221E-1,-2.0947212E-2,-4.4360768E-2,-9.476694E-2,1.1445377E-1,5.794915E-2,-3.2942554E-3,4.1264664E-2,4.2565766E-1,4.2242285E-2,1.6613741E-1,5.5583216E-2,2.1137331E-1,7.628725E-2,7.2767735E-2,-7.21563E-2,8.068357E-2,3.50582E-1,-7.6292105E-2,-1.0887901E-1,-2.0666898E-3,-4.7850348E-2,-9.214894E-2,-2.5238175E-2,-7.397243E-2,-1.4721918E-2,-2.4256611E-2,4.2479277E-2,2.0777587E-2,-7.158115E-2,1.601337E-1,4.2479277E-2],"categories":[],"categories_nodes":[],"categories_segments":[],"categories_sizes":[],"default_left":[0,0,0,0,0,0,0,0,0,0,0,0,0,0,0,0,0,0,0,0,0,0,0,0,0,0,0,0,0,0,0,0,0,0,0,0,0,0,0,0,0,0,0,0,0,0,0,0,0,0,0,0,0,0,0,0,0,0,0,0,0,0,0,0,0,0,0,0,0,0,0,0,0,0,0,0,0,0,0,0,0,0,0,0,0,0,0,0,0,0,0,0,0,0,0,0,0,0,0,0,0,0,0,0,0,0,0,0,0],"id":3,"left_children":[1,3,5,7,9,11,13,15,17,19,21,23,25,27,29,31,33,-1,-1,35,37,39,41,43,45,47,49,51,53,55,57,59,61,63,65,67,69,71,73,75,-1,77,79,81,83,85,87,89,91,93,-1,95,97,-1,99,101,103,105,107,-1,-1,-1,-1,-1,-1,-1,-1,-1,-1,-1,-1,-1,-1,-1,-1,-1,-1,-1,-1,-1,-1,-1,-1,-1,-1,-1,-1,-1,-1,-1,-1,-1,-1,-1,-1,-1,-1,-1,-1,-1,-1,-1,-1,-1,-1,-1,-1,-1,-1],"loss_changes":[1.0240298E3,1.9304709E2,3.9485944E2,4.6942688E1,1.3888428E2,1.9442413E2,3.9798134E1,3.7335876E1,4.1950073E0,3.596083E1,6.8253326E0,7.665344E1,4.1516235E1,5.955513E0,1.5734427E1,8.995026E0,1.7897774E1,0E0,0E0,3.3343147E1,3.1277103E1,8.884272E0,6.4227295E0,6.806558E1,7.704535E1,6.706906E1,2.9740387E1,1.2486038E0,1.3626678E1,5.6403713E0,1.2686623E1,5.602646E0,9.482513E0,1.1314739E1,1.014312E1,1.6020111E1,2.9928453E1,4.775528E0,1.762784E1,8.398248E0,0E0,1.1716156E0,5.2274666E0,4.7480865E1,1.5713167E1,6.893315E1,2.3148148E1,2.932721E1,2.357974E1,4.8063416E1,0E0,3.7773132E-1,5.699353E-1,0E0,4.614067E-2,1.5453081E0,3.5611222E0,5.576374E0,2.6356297E0,0E0,0E0,0E0,0E0,0E0,0E0,0E0,0E0,0E0,0E0,0E0,0E0,0E0,0E0,0E0,0E0,0E0,0E0,0E0,0E0,0E0,0E0,0E0,0E0,0E0,0E0,0E0,0E0,0E0,0E0,0E0,0E0,0E0,0E0,0E0,0E0,0E0,0E0,0E0,0E0,0E0,0E0,0E0,0E0,0E0,0E0,0E0,0E0,0E0,0E0],"parents":[2147483647,0,0,1,1,2,2,3,3,4,4,5,5,6,6,7,7,8,8,9,9,10,10,11,11,12,12,13,13,14,14,15,15,16,16,19,19,20,20,21,21,22,22,23,23,24,24,25,25,26,26,27,27,28,28,29,29,30,30,31,31,32,32,33,33,34,34,35,35,36,36,37,37,38,38,39,39,41,41,42,42,43,43,44,44,45,45,46,46,47,47,48,48,49,49,51,51,52,52,54,54,55,55,56,56,57,57,58,58],"right_children":[2,4,6,8,10,12,14,16,18,20,22,24,26,28,30,32,34,-1,-1,36,38,40,42,44,46,48,50,52,54,56,58,60,62,64,66,68,70,72,74,76,-1,78,80,82,84,86,88,90,92,94,-1,96,98,-1,100,102,104,106,108,-1,-1,-1,-1,-1,-1,-1,-1,-1,-1,-1,-1,-1,-1,-1,-1,-1,-1,-1,-1,-1,-1,-1,-1,-1,-1,-1,-1,-1,-1,-1,-1,-1,-1,-1,-1,-1,-1,-1,-1,-1,-1,-1,-1,-1,-1,-1,-1,-1,-1],"split_conditions":[3.4285715E0,2.2857144E0,6E0,6E0,6E0,5.214286E0,4.285714E0,1.8571428E0,1.1428572E0,6E0,3E0,5.428571E0,6.285714E0,1.1E1,5E0,1.8571428E0,2.5E1,-2.0666898E-3,-1.0758306E-1,2.7142856E0,1.1E1,5E0,2.857143E0,6E0,1E0,5.714286E0,6E0,4E0,4E0,5.285714E0,5.428571E0,1E0,1.2E1,7E0,3.2142856E0,7E0,4E0,2.5714285E0,5E0,6E0,6.744777E-2,4E0,5E0,6E0,4E0,5E0,1.4E1,6E0,5.857143E0,2E0,4.6753574E-2,3.7142856E0,2E0,4.1600976E-2,4E0,4.857143E0,2.1E1,5.142857E0,5E0,-5.3412456E-2,-9.254303E-2,-6.0642194E-2,3.602418E-2,-2.1493342E-2,-7.319059E-2,-7.534554E-2,1.5993118E-2,-2.7670184E-2,4.7450685E-3,3.6720142E-3,4.428568E-2,-8.525247E-2,-4.3487545E-2,-2.9117554E-2,8.01607E-2,-7.812127E-2,2.7424345E-2,-1.0461221E-1,-2.0947212E-2,-4.4360768E-2,-9.476694E-2,1.1445377E-1,5.794915E-2,-3.2942554E-3,4.1264664E-2,4.2565766E-1,4.2242285E-2,1.6613741E-1,5.5583216E-2,2.1137331E-1,7.628725E-2,7.2767735E-2,-7.21563E-2,8.068357E-2,3.50582E-1,-7.6292105E-2,-1.0887901E-1,-2.0666898E-3,-4.7850348E-2,-9.214894E-2,-2.5238175E-2,-7.397243E-2,-1.4721918E-2,-2.4256611E-2,4.2479277E-2,2.0777587E-2,-7.158115E-2,1.601337E-1,4.2479277E-2],"split_indices":[3,3,7,7,7,4,4,3,4,0,6,3,3,6,6,4,5,0,0,3,6,2,3,0,2,4,2,1,4,3,3,1,6,1,4,6,7,4,7,0,0,1,0,5,7,0,5,3,3,2,0,4,2,0,0,4,5,3,2,0,0,0,0,0,0,0,0,0,0,0,0,0,0,0,0,0,0,0,0,0,0,0,0,0,0,0,0,0,0,0,0,0,0,0,0,0,0,0,0,0,0,0,0,0,0,0,0,0,0],"split_type":[0,0,0,0,0,0,0,0,0,0,0,0,0,0,0,0,0,0,0,0,0,0,0,0,0,0,0,0,0,0,0,0,0,0,0,0,0,0,0,0,0,0,0,0,0,0,0,0,0,0,0,0,0,0,0,0,0,0,0,0,0,0,0,0,0,0,0,0,0,0,0,0,0,0,0,0,0,0,0,0,0,0,0,0,0,0,0,0,0,0,0,0,0,0,0,0,0,0,0,0,0,0,0,0,0,0,0,0,0],"sum_hessian":[1.323E3,8.32E2,4.91E2,3.63E2,4.69E2,4.2E2,7.1E1,3.12E2,5.1E1,4.02E2,6.7E1,3.7E2,5E1,4.4E1,2.7E1,1.54E2,1.58E2,1E0,5E1,3.54E2,4.8E1,9E0,5.8E1,3.42E2,2.8E1,3.8E1,1.2E1,3.7E1,7E0,1.5E1,1.2E1,7.4E1,8E1,1.23E2,3.5E1,1.53E2,2.01E2,3.5E1,1.3E1,8E0,1E0,3E1,2.8E1,2.62E2,8E1,5E0,2.3E1,2.6E1,1.2E1,1E1,2E0,3.4E1,3E0,3E0,4E0,8E0,7E0,9E0,3E0,1.7E1,5.7E1,7.8E1,2E0,1.12E2,1.1E1,3.2E1,3E0,8.5E1,6.8E1,1.33E2,6.8E1,1.7E1,1.8E1,7E0,6E0,6E0,2E0,2.9E1,1E0,1.9E1,9E0,4.6E1,2.16E2,4.7E1,3.3E1,3E0,2E0,7E0,1.6E1,1.9E1,7E0,9E0,3E0,3E0,7E0,2.1E1,1.3E1,1E0,2E0,3E0,1E0,6E0,2E0,5E0,2E0,8E0,1E0,1E0,2E0],"tree_param":{"num_deleted":"0","num_feature":"8","num_nodes":"109","size_leaf_vector":"1"}},{"base_weights":[1.1265173E-3,-6.4213395E-1,1.0902218E0,-1.2907754E0,-3.166583E-1,1.4412336E0,-9.773651E-1,-1.1598296E0,-2.0409076E0,-1.07887894E-1,-1.5574936E0,1.1958174E0,3.1982582E0,-1.5282109E0,-5.717131E-2,-1.747919E0,-1.021892E0,-2.0150244E-3,-2.091172E0,-4.7651386E-1,1.3995852E-1,-1.8712428E0,-1.2582614E0,1.064124E0,2.7121956E0,2.5781481E0,4.812568E0,-1.6813949E0,-6.0956013E-1,-6.93243E-1,7.3008394E-1,-9.905621E-1,-2.0009727E0,-1.140708E0,-3.526877E-1,-1.2223926E0,-1.0914904E-1,-8.246067E-1,-2.3111169E-1,-2.6880715E-2,7.431661E-1,-6.7352766E-1,-9.7855695E-2,-1.3130561E0,2.74477E-2,1.2977337E0,2.9247627E-1,5.8709483E0,1.8094994E0,3.5767045E0,9.191793E-1,-5.6452514E-3,5.232433E0,-1.7439167E0,-7.1398026E-1,4.004094E-2,-1.6159513E0,-9.747332E-1,3.949107E-1,7.8207895E-2,2.1772532E0,-7.386402E-2,2.369371E-2,-1.1182854E-1,-5.751905E-2,-5.3309716E-2,-9.678306E-2,7.330561E-2,-2.6433889E-2,-7.597398E-2,6.576055E-3,-8.16407E-2,-3.349277E-2,-1.6603948E-4,-4.3440774E-2,7.088728E-3,-6.092772E-2,-2.7759045E-2,5.017624E-2,-5.8156945E-2,1.988265E-2,-4.9542647E-2,-9.242226E-2,1.0885284E-1,5.5065047E-2,-3.1329754E-3,3.9262112E-2,4.0969548E-1,4.083421E-2,1.588689E-1,5.2967537E-2,1.15656994E-1,2.5571904E-1,-2.202437E-3,1.0819542E-1,3.5995737E-1,1.3995938E-1,-7.2650895E-2,-1.03823915E-1,-2.0150244E-3,-4.6255335E-2,-8.869334E-2,-2.4607217E-2,-5.729081E-2,-1.1258762E-3,4.10633E-2,-2.2103881E-2,1.9854134E-2,-6.979162E-2,1.5613036E-1,4.10633E-2],"categories":[],"categories_nodes":[],"categories_segments":[],"categories_sizes":[],"default_left":[0,0,0,0,0,0,0,0,0,0,0,0,0,0,0,0,0,0,0,0,0,0,0,0,0,0,0,0,0,0,0,0,0,0,0,0,0,0,0,0,0,0,0,0,0,0,0,0,0,0,0,0,0,0,0,0,0,0,0,0,0,0,0,0,0,0,0,0,0,0,0,0,0,0,0,0,0,0,0,0,0,0,0,0,0,0,0,0,0,0,0,0,0,0,0,0,0,0,0,0,0,0,0,0,0,0,0,0,0,0,0],"id":4,"left_children":[1,3,5,7,9,11,13,15,17,19,21,23,25,27,29,31,33,-1,35,37,39,41,43,45,47,49,51,53,55,57,59,61,63,65,67,69,-1,71,73,75,77,79,-1,81,-1,83,85,87,89,91,93,-1,95,97,99,-1,101,103,105,107,109,-1,-1,-1,-1,-1,-1,-1,-1,-1,-1,-1,-1,-1,-1,-1,-1,-1,-1,-1,-1,-1,-1,-1,-1,-1,-1,-1,-1,-1,-1,-1,-1,-1,-1,-1,-1,-1,-1,-1,-1,-1,-1,-1,-1,-1,-1,-1,-1,-1,-1],"loss_changes":[9.282572E2,1.7545175E2,3.584765E2,2.493988E1,1.438636E2,1.7771179E2,3.6408348E1,1.760141E1,3.938095E0,4.3646664E1,5.156204E0,7.1201416E1,3.8645996E1,5.3076096E0,1.4527148E1,6.4506073E0,1.5182068E1,0E0,4.4226074E-1,1.621059E1,2.880264E1,2.4872437E0,5.0779343E0,6.145111E1,7.206697E1,6.1318756E1,2.747519E1,1.0532913E0,1.2649227E1,5.2858057E0,1.2093596E1,9.96603E0,3.8398285E0,7.7691803E0,1.0697912E1,2.613225E0,0E0,8.786877E0,1.655711E1,4.5393723E1,2.1515366E1,2.5603738E0,0E0,5.586136E0,0E0,4.3029816E1,1.4224106E1,6.3753296E1,2.1260742E1,3.48006E1,1.927864E1,0E0,3.727423E1,3.6880493E-1,5.3164387E-1,0E0,1.4334679E-2,2.092002E0,1.790481E0,5.2546034E0,2.5630608E0,0E0,0E0,0E0,0E0,0E0,0E0,0E0,0E0,0E0,0E0,0E0,0E0,0E0,0E0,0E0,0E0,0E0,0E0,0E0,0E0,0E0,0E0,0E0,0E0,0E0,0E0,0E0,0E0,0E0,0E0,0E0,0E0,0E0,0E0,0E0,0E0,0E0,0E0,0E0,0E0,0E0,0E0,0E0,0E0,0E0,0E0,0E0,0E0,0E0,0E0],"parents":[2147483647,0,0,1,1,2,2,3,3,4,4,5,5,6,6,7,7,8,8,9,9,10,10,11,11,12,12,13,13,14,14,15,15,16,16,18,18,19,19,20,20,21,21,22,22,23,23,24,24,25,25,26,26,27,27,28,28,29,29,30,30,31,31,32,32,33,33,34,34,35,35,37,37,38,38,39,39,40,40,41,41,43,43,45,45,46,46,47,47,48,48,49,49,50,50,52,52,53,53,54,54,56,56,57,57,58,58,59,59,60,60],"right_children":[2,4,6,8,10,12,14,16,18,20,22,24,26,28,30,32,34,-1,36,38,40,42,44,46,48,50,52,54,56,58,60,62,64,66,68,70,-1,72,74,76,78,80,-1,82,-1,84,86,88,90,92,94,-1,96,98,100,-1,102,104,106,108,110,-1,-1,-1,-1,-1,-1,-1,-1,-1,-1,-1,-1,-1,-1,-1,-1,-1,-1,-1,-1,-1,-1,-1,-1,-1,-1,-1,-1,-1,-1,-1,-1,-1,-1,-1,-1,-1,-1,-1,-1,-1,-1,-1,-1,-1,-1,-1,-1,-1,-1],"split_conditions":[3.4285715E0,2.142857E0,6E0,6E0,6E0,5.214286E0,4.285714E0,1.2857143E0,1.1428572E0,2.5714285E0,2.7142856E0,5.428571E0,6.285714E0,1.1E1,5E0,2E0,5E0,-2.0150244E-3,1E0,2E0,1E1,2E0,1E1,6E0,1E0,5.642857E0,2E0,4E0,4E0,2.5E1,5.428571E0,1.9E1,5E0,5E0,2E0,1.9285715E0,-1.0914904E-1,6E0,5E0,6E0,1E0,5E0,-9.7855695E-2,4E0,2.74477E-2,6E0,4E0,5E0,1.4E1,4E0,6E0,-5.6452514E-3,6E0,3.7142856E0,2E0,4.004094E-2,4E0,1E1,3E0,5.142857E0,5E0,-7.386402E-2,2.369371E-2,-1.1182854E-1,-5.751905E-2,-5.3309716E-2,-9.678306E-2,7.330561E-2,-2.6433889E-2,-7.597398E-2,6.576055E-3,-8.16407E-2,-3.349277E-2,-1.6603948E-4,-4.3440774E-2,7.088728E-3,-6.092772E-2,-2.7759045E-2,5.017624E-2,-5.8156945E-2,1.988265E-2,-4.9542647E-2,-9.242226E-2,1.0885284E-1,5.5065047E-2,-3.1329754E-3,3.9262112E-2,4.0969548E-1,4.083421E-2,1.588689E-1,5.2967537E-2,1.15656994E-1,2.5571904E-1,-2.202437E-3,1.0819542E-1,3.5995737E-1,1.3995938E-1,-7.2650895E-2,-1.03823915E-1,-2.0150244E-3,-4.6255335E-2,-8.869334E-2,-2.4607217E-2,-5.729081E-2,-1.1258762E-3,4.10633E-2,-2.2103881E-2,1.9854134E-2,-6.979162E-2,1.5613036E-1,4.10633E-2],"split_indices":[3,3,7,7,7,4,4,3,4,3,4,3,3,6,6,7,7,0,2,2,6,6,2,0,2,4,1,1,4,5,3,5,2,0,6,4,0,5,2,0,1,0,0,2,0,5,7,0,5,2,0,0,4,4,2,0,0,0,1,3,2,0,0,0,0,0,0,0,0,0,0,0,0,0,0,0,0,0,0,0,0,0,0,0,0,0,0,0,0,0,0,0,0,0,0,0,0,0,0,0,0,0,0,0,0,0,0,0,0,0,0],"split_type":[0,0,0,0,0,0,0,0,0,0,0,0,0,0,0,0,0,0,0,0,0,0,0,0,0,0,0,0,0,0,0,0,0,0,0,0,0,0,0,0,0,0,0,0,0,0,0,0,0,0,0,0,0,0,0,0,0,0,0,0,0,0,0,0,0,0,0,0,0,0,0,0,0,0,0,0,0,0,0,0,0,0,0,0,0,0,0,0,0,0,0,0,0,0,0,0,0,0,0,0,0,0,0,0,0,0,0,0,0,0,0],"sum_hessian":[1.323E3,8.32E2,4.91E2,2.77E2,5.55E2,4.2E2,7.1E1,2.38E2,3.9E1,4.76E2,7.9E1,3.7E2,5E1,4.4E1,2.7E1,4.3E1,1.95E2,1E0,3.8E1,1.91E2,2.85E2,3.6E1,4.3E1,3.42E2,2.8E1,3.8E1,1.2E1,3.7E1,7E0,1.5E1,1.2E1,1.2E1,3.1E1,1.65E2,3E1,5E0,3.3E1,7.8E1,1.13E2,2.24E2,6.1E1,3E0,3.3E1,4.2E1,1E0,2.62E2,8E1,5E0,2.3E1,2.3E1,1.5E1,1E0,1.1E1,3.4E1,3E0,3E0,4E0,1.2E1,3E0,9E0,3E0,9E0,3E0,2.3E1,8E0,1.53E2,1.2E1,2E0,2.8E1,4E0,1E0,1.1E1,6.7E1,8.4E1,2.9E1,1.97E2,2.7E1,1E1,5.1E1,2E0,1E0,2.8E1,1.4E1,4.6E1,2.16E2,4.7E1,3.3E1,3E0,2E0,7E0,1.6E1,1.4E1,9E0,9E0,6E0,5E0,6E0,2.1E1,1.3E1,1E0,2E0,3E0,1E0,1E1,2E0,2E0,1E0,8E0,1E0,1E0,2E0],"tree_param":{"num_deleted":"0","num_feature":"8","num_nodes":"111","size_leaf_vector":"1"}},{"base_weights":[1.5986862E-3,-4.5402E-1,1.4092305E0,-9.540982E-1,4.2984087E-2,1.723126E0,-6.821129E-1,-8.156673E-1,-1.7908299E0,3.0665705E-1,-1.3760537E0,1.4107742E0,3.1442225E0,-1.4182336E0,1.5659614E-1,-1.2907094E0,-5.4593104E-1,-1.1427141E0,-1.9932023E0,4.343278E-1,-3.36016E-1,-1.4477025E0,4.6080742E-2,2.5074134E0,1.0739449E0,4.5762873E0,2.4601893E0,4.23596E-2,-1.5597162E0,8.5706013E-1,-5.5810386E-1,-1.536114E0,-1.0475483E0,-4.594233E-1,-1.3267088E0,-1.3574697E0,6.807213E-2,-1.9646466E-3,-2.0307438E0,2.4936573E-1,8.5503405E-1,-1.1265134E0,9.161057E-2,-1.4773021E0,2.0046597E-2,3.6905742E0,8.7468845E-1,8.028057E-1,1.6028433E0,5.8126807E0,1.7529168E0,2.79019E0,9.5641315E-1,-1.0956795E0,-2.0069923E0,-5.38671E-3,1.18384436E-1,-7.619836E-2,-1.7413789E-1,-4.8077915E-2,-8.439698E-2,-2.9260844E-2,-6.612447E-2,-3.83006E-2,-1.316645E-2,-9.868565E-2,-5.0078582E-2,-7.9733476E-2,1.8004294E-2,-1.0280132E-1,-1.9165356E-2,-2.0727526E-2,2.1167343E-2,4.727994E-2,-2.933856E-2,-7.0637345E-2,7.675449E-4,8.052345E-2,-4.3565677E-3,-6.6279896E-2,-9.313231E-2,5.8943864E-2,2.5065318E-1,1.07247196E-1,5.2750832E-3,3.4414064E-2,1.1672143E-1,3.4502063E-2,1.0961051E-1,-2.4403995E-2,3.2834983E-1,-6.6666305E-2,1.3184153E-1,1.1214433E-1,2.8250572E-1,-1.3755209E-2,1.5503217E-1,-6.818095E-2,-7.595551E-3,-1.0734214E-1,-1.870848E-2,-2.2056846E-2,4.3395463E-2,-2.6636684E-2,1.0964274E-2],"categories":[],"categories_nodes":[],"categories_segments":[],"categories_sizes":[],"default_left":[0,0,0,0,0,0,0,0,0,0,0,0,0,0,0,0,0,0,0,0,0,0,0,0,0,0,0,0,0,0,0,0,0,0,0,0,0,0,0,0,0,0,0,0,0,0,0,0,0,0,0,0,0,0,0,0,0,0,0,0,0,0,0,0,0,0,0,0,0,0,0,0,0,0,0,0,0,0,0,0,0,0,0,0,0,0,0,0,0,0,0,0,0,0,0,0,0,0,0,0,0,0,0,0,0],"id":5,"left_children":[1,3,5,7,9,11,13,15,17,19,21,23,25,27,29,31,33,35,37,39,41,43,-1,45,47,49,51,-1,53,55,57,59,61,63,65,67,-1,-1,69,71,73,75,77,79,-1,81,83,85,87,89,91,93,95,97,99,101,-1,-1,103,-1,-1,-1,-1,-1,-1,-1,-1,-1,-1,-1,-1,-1,-1,-1,-1,-1,-1,-1,-1,-1,-1,-1,-1,-1,-1,-1,-1,-1,-1,-1,-1,-1,-1,-1,-1,-1,-1,-1,-1,-1,-1,-1,-1,-1,-1],"loss_changes":[8.4977844E2,2.4883046E2,2.1386945E2,5.6338257E1,1.886254E2,1.2073889E2,2.6769905E1,5.439389E1,6.9035797E0,3.501744E1,1.4339615E1,8.337277E1,3.772049E1,8.693306E0,1.0991383E1,7.6401367E0,1.8032425E1,1.2065964E1,3.7345428E0,2.7410995E1,2.4103874E1,4.8056335E0,0E0,1.0108783E2,2.4526154E1,4.217282E1,1.519632E1,0E0,2.3671303E0,1.4343962E1,3.8140647E0,4.9193726E0,9.522278E0,1.4828369E1,3.703041E0,7.907486E0,0E0,0E0,1.3361511E0,2.8821703E1,1.4657143E1,8.192688E0,1.2900056E1,1.9737091E0,0E0,9.706268E1,2.322323E1,1.961766E1,3.0765793E1,5.073285E1,1.9883593E1,3.271959E1,2.1978252E1,3.0801983E0,1.4802246E0,3.427178E0,0E0,0E0,1.3865404E0,0E0,0E0,0E0,0E0,0E0,0E0,0E0,0E0,0E0,0E0,0E0,0E0,0E0,0E0,0E0,0E0,0E0,0E0,0E0,0E0,0E0,0E0,0E0,0E0,0E0,0E0,0E0,0E0,0E0,0E0,0E0,0E0,0E0,0E0,0E0,0E0,0E0,0E0,0E0,0E0,0E0,0E0,0E0,0E0,0E0,0E0],"parents":[2147483647,0,0,1,1,2,2,3,3,4,4,5,5,6,6,7,7,8,8,9,9,10,10,11,11,12,12,13,13,14,14,15,15,16,16,17,17,18,18,19,19,20,20,21,21,23,23,24,24,25,25,26,26,28,28,29,29,30,30,31,31,32,32,33,33,34,34,35,35,38,38,39,39,40,40,41,41,42,42,43,43,45,45,46,46,47,47,48,48,49,49,50,50,51,51,52,52,53,53,54,54,55,55,58,58],"right_children":[2,4,6,8,10,12,14,16,18,20,22,24,26,28,30,32,34,36,38,40,42,44,-1,46,48,50,52,-1,54,56,58,60,62,64,66,68,-1,-1,70,72,74,76,78,80,-1,82,84,86,88,90,92,94,96,98,100,102,-1,-1,104,-1,-1,-1,-1,-1,-1,-1,-1,-1,-1,-1,-1,-1,-1,-1,-1,-1,-1,-1,-1,-1,-1,-1,-1,-1,-1,-1,-1,-1,-1,-1,-1,-1,-1,-1,-1,-1,-1,-1,-1,-1,-1,-1,-1,-1,-1],"split_conditions":[4E0,2.5714285E0,6E0,6E0,6E0,5.214286E0,4.357143E0,1.8571428E0,4E0,6E0,1E1,2E0,4E0,3E0,6E0,1.8571428E0,5E0,6E0,1.1428572E0,3.4285715E0,2.857143E0,4.857143E0,4.6080742E-2,5E0,4.857143E0,4E0,1E1,4.23596E-2,4E0,5.428571E0,7E0,1E0,2.0714285E0,2E0,2.142857E0,5E0,6.807213E-2,-1.9646466E-3,3.1E1,1E0,8E0,9E0,2.9285715E0,6E0,2.0046597E-2,4.142857E0,7E0,2.9E1,4E0,1E0,1.2E1,5E0,7E0,3E0,6E0,5E0,1.18384436E-1,-7.619836E-2,4E0,-4.8077915E-2,-8.439698E-2,-2.9260844E-2,-6.612447E-2,-3.83006E-2,-1.316645E-2,-9.868565E-2,-5.0078582E-2,-7.9733476E-2,1.8004294E-2,-1.0280132E-1,-1.9165356E-2,-2.0727526E-2,2.1167343E-2,4.727994E-2,-2.933856E-2,-7.0637345E-2,7.675449E-4,8.052345E-2,-4.3565677E-3,-6.6279896E-2,-9.313231E-2,5.8943864E-2,2.5065318E-1,1.07247196E-1,5.2750832E-3,3.4414064E-2,1.1672143E-1,3.4502063E-2,1.0961051E-1,-2.4403995E-2,3.2834983E-1,-6.6666305E-2,1.3184153E-1,1.1214433E-1,2.8250572E-1,-1.3755209E-2,1.5503217E-1,-6.818095E-2,-7.595551E-3,-1.0734214E-1,-1.870848E-2,-2.2056846E-2,4.3395463E-2,-2.6636684E-2,1.0964274E-2],"split_indices":[3,3,7,7,7,4,4,3,6,0,2,2,0,5,0,4,0,2,4,3,4,4,0,0,3,7,1,0,4,3,0,1,4,2,3,0,0,0,5,7,2,6,4,2,0,3,5,5,1,2,5,7,2,1,0,6,0,0,6,0,0,0,0,0,0,0,0,0,0,0,0,0,0,0,0,0,0,0,0,0,0,0,0,0,0,0,0,0,0,0,0,0,0,0,0,0,0,0,0,0,0,0,0,0,0],"split_type":[0,0,0,0,0,0,0,0,0,0,0,0,0,0,0,0,0,0,0,0,0,0,0,0,0,0,0,0,0,0,0,0,0,0,0,0,0,0,0,0,0,0,0,0,0,0,0,0,0,0,0,0,0,0,0,0,0,0,0,0,0,0,0,0,0,0,0,0,0,0,0,0,0,0,0,0,0,0,0,0,0,0,0,0,0,0,0,0,0,0,0,0,0,0,0,0,0,0,0,0,0,0,0,0,0],"sum_hessian":[1.323E3,1E3,3.23E2,4.98E2,5.02E2,2.81E2,4.2E1,4.29E2,6.9E1,4.24E2,7.8E1,2.32E2,4.9E1,2.2E1,2E1,1.54E2,2.75E2,1.8E1,5.1E1,3.54E2,7E1,7.6E1,2E0,5.3E1,1.79E2,1.4E1,3.5E1,1E0,2.1E1,1E1,1E1,7.4E1,8E1,2.49E2,2.6E1,1.7E1,1E0,1E0,5E1,2.47E2,1.07E2,2.4E1,4.6E1,7.5E1,1E0,3E1,2.3E1,1.2E2,5.9E1,9E0,5E0,2.8E1,7E0,1.2E1,9E0,7E0,3E0,2E0,8E0,1.7E1,5.7E1,3.1E1,4.9E1,9.6E1,1.53E2,7E0,1.9E1,1.5E1,2E0,4.9E1,1E0,5.1E1,1.96E2,1.01E2,6E0,1.9E1,5E0,4E0,4.2E1,5.7E1,1.8E1,1.1E1,1.9E1,8E0,1.5E1,1.13E2,7E0,2.4E1,3.5E1,1E0,8E0,1E0,4E0,2.5E1,3E0,5E0,2E0,9E0,3E0,8E0,1E0,5E0,2E0,4E0,4E0],"tree_param":{"num_deleted":"0","num_feature":"8","num_nodes":"105","size_leaf_vector":"1"}},{"base_weights":[2.1958996E-3,-4.3193266E-1,1.343432E0,-9.0748686E-1,4.0698543E-2,1.642723E0,-6.506029E-1,-7.7587944E-1,-1.7029682E0,2.913823E-1,-1.3084319E0,1.3433144E0,3.0051124E0,-1.3542552E0,1.5104501E-1,-1.227644E0,-5.1936E-1,-1.0852447E0,-1.8959255E0,4.1266328E-1,-3.191265E-1,-1.3771273E0,4.454471E-2,2.3898597E0,1.021888E0,4.372081E0,2.3520668E0,4.1300613E-2,-1.4909043E0,8.2690924E-1,-5.3855056E-1,-1.7419366E0,-1.1104847E0,-4.3665805E-1,-1.2658831E0,-1.2930256E0,6.637033E-2,-1.9155324E-3,-1.9315982E0,-1.1829575E-1,5.458196E-1,-1.0729824E0,8.8650666E-2,-1.4055345E0,1.954543E-2,3.5160325E0,8.3564246E-1,9.103579E-1,2.2792907E0,5.5524416E0,1.6761335E0,2.664289E0,9.262522E-1,-1.0467244E0,-1.9192477E0,-2.4500787E-3,2.2789006E0,-7.3658414E-2,-1.6717236E-1,-2.094689E-2,-1.0117878E-1,2.9831035E-2,-5.642413E-2,-3.6405317E-2,-1.2512403E-2,-7.3433064E-2,-2.38354E-2,-7.5995974E-2,1.7404156E-2,-9.776406E-2,-1.8686224E-2,-2.4153944E-2,2.3609385E-2,1.51542295E-2,4.1151825E-2,-6.2121954E-2,2.9192254E-2,7.730251E-2,-4.143802E-3,-4.2990696E-2,-7.4232966E-2,5.624227E-2,2.3874715E-1,1.0248065E-1,5.027817E-3,3.740591E-2,9.728296E-2,-1.2314925E-2,1.4952393E-1,-2.3793895E-2,3.137565E-1,-6.499965E-2,1.2656787E-1,1.06752776E-1,2.7191177E-1,-1.3182069E-2,1.4986444E-1,-6.51128E-2,-7.3107183E-3,-1.0257137E-1,-1.8240768E-2,-4.25709E-2,2.1122111E-2,5.2415043E-2,1.4926748E-1,-2.5571221E-2,1.0525708E-2],"categories":[],"categories_nodes":[],"categories_segments":[],"categories_sizes":[],"default_left":[0,0,0,0,0,0,0,0,0,0,0,0,0,0,0,0,0,0,0,0,0,0,0,0,0,0,0,0,0,0,0,0,0,0,0,0,0,0,0,0,0,0,0,0,0,0,0,0,0,0,0,0,0,0,0,0,0,0,0,0,0,0,0,0,0,0,0,0,0,0,0,0,0,0,0,0,0,0,0,0,0,0,0,0,0,0,0,0,0,0,0,0,0,0,0,0,0,0,0,0,0,0,0,0,0,0,0],"id":6,"left_children":[1,3,5,7,9,11,13,15,17,19,21,23,25,27,29,31,33,35,37,39,41,43,-1,45,47,49,51,-1,53,55,57,59,61,63,65,67,-1,-1,69,71,73,75,77,79,-1,81,83,85,87,89,91,93,95,97,99,101,103,-1,105,-1,-1,-1,-1,-1,-1,-1,-1,-1,-1,-1,-1,-1,-1,-1,-1,-1,-1,-1,-1,-1,-1,-1,-1,-1,-1,-1,-1,-1,-1,-1,-1,-1,-1,-1,-1,-1,-1,-1,-1,-1,-1,-1,-1,-1,-1,-1,-1],"loss_changes":[7.715042E2,2.2502345E2,1.9443091E2,5.0919647E1,1.7049843E2,1.1099414E2,2.4460056E1,4.9193573E1,6.2860565E0,3.1600002E1,1.3162476E1,7.5936066E1,3.4351257E1,8.083931E0,1.0232864E1,7.4049835E0,1.6487167E1,1.1241129E1,3.3718262E0,2.5163261E1,2.1920893E1,4.416748E0,0E0,9.157898E1,2.3167908E1,3.842621E1,1.355835E1,0E0,2.1768303E0,1.3252029E1,3.5717895E0,9.212662E0,4.6367035E0,1.3400013E1,3.6206245E0,7.231491E0,0E0,0E0,1.1509247E0,1.5736789E1,1.8860985E1,7.744398E0,1.1877329E1,2.0051575E0,0E0,8.794794E1,2.1210848E1,2.659488E1,2.5882912E1,4.6552155E1,1.8562273E1,3.0962967E1,2.0504713E1,2.8010035E0,1.3062515E0,3.245434E0,3.478794E-1,0E0,1.2778363E0,0E0,0E0,0E0,0E0,0E0,0E0,0E0,0E0,0E0,0E0,0E0,0E0,0E0,0E0,0E0,0E0,0E0,0E0,0E0,0E0,0E0,0E0,0E0,0E0,0E0,0E0,0E0,0E0,0E0,0E0,0E0,0E0,0E0,0E0,0E0,0E0,0E0,0E0,0E0,0E0,0E0,0E0,0E0,0E0,0E0,0E0,0E0,0E0],"parents":[2147483647,0,0,1,1,2,2,3,3,4,4,5,5,6,6,7,7,8,8,9,9,10,10,11,11,12,12,13,13,14,14,15,15,16,16,17,17,18,18,19,19,20,20,21,21,23,23,24,24,25,25,26,26,28,28,29,29,30,30,31,31,32,32,33,33,34,34,35,35,38,38,39,39,40,40,41,41,42,42,43,43,45,45,46,46,47,47,48,48,49,49,50,50,51,51,52,52,53,53,54,54,55,55,56,56,58,58],"right_children":[2,4,6,8,10,12,14,16,18,20,22,24,26,28,30,32,34,36,38,40,42,44,-1,46,48,50,52,-1,54,56,58,60,62,64,66,68,-1,-1,70,72,74,76,78,80,-1,82,84,86,88,90,92,94,96,98,100,102,104,-1,106,-1,-1,-1,-1,-1,-1,-1,-1,-1,-1,-1,-1,-1,-1,-1,-1,-1,-1,-1,-1,-1,-1,-1,-1,-1,-1,-1,-1,-1,-1,-1,-1,-1,-1,-1,-1,-1,-1,-1,-1,-1,-1,-1,-1,-1,-1,-1,-1],"split_conditions":[4E0,2.5714285E0,6E0,6E0,6E0,5.214286E0,4.357143E0,1.8571428E0,4E0,6E0,1E1,2E0,4E0,3E0,6E0,1.1428572E0,5E0,6E0,1.1428572E0,1E0,2.857143E0,4.857143E0,4.454471E-2,5E0,2.9E1,4E0,1E1,4.1300613E-2,4E0,5.428571E0,7E0,1E0,1.0714285E0,2E0,5E0,5E0,6.637033E-2,-1.9155324E-3,3.1E1,8E0,3.142857E0,3.4285715E0,2.9285715E0,2E0,1.954543E-2,4.142857E0,7E0,8E0,4E0,1E0,1.2E1,5E0,7E0,3E0,6E0,2E0,5E0,-7.3658414E-2,4E0,-2.094689E-2,-1.0117878E-1,2.9831035E-2,-5.642413E-2,-3.6405317E-2,-1.2512403E-2,-7.3433064E-2,-2.38354E-2,-7.5995974E-2,1.7404156E-2,-9.776406E-2,-1.8686224E-2,-2.4153944E-2,2.3609385E-2,1.51542295E-2,4.1151825E-2,-6.2121954E-2,2.9192254E-2,7.730251E-2,-4.143802E-3,-4.2990696E-2,-7.4232966E-2,5.624227E-2,2.3874715E-1,1.0248065E-1,5.027817E-3,3.740591E-2,9.728296E-2,-1.2314925E-2,1.4952393E-1,-2.3793895E-2,3.137565E-1,-6.499965E-2,1.2656787E-1,1.06752776E-1,2.7191177E-1,-1.3182069E-2,1.4986444E-1,-6.51128E-2,-7.3107183E-3,-1.0257137E-1,-1.8240768E-2,-4.25709E-2,2.1122111E-2,5.2415043E-2,1.4926748E-1,-2.5571221E-2,1.0525708E-2],"split_indices":[3,3,7,7,7,4,4,3,6,0,2,2,0,5,0,3,0,2,4,7,4,4,0,0,5,7,1,0,4,3,0,7,4,2,7,0,0,0,5,6,3,3,4,0,0,3,5,1,6,2,5,7,2,1,0,2,0,0,6,0,0,0,0,0,0,0,0,0,0,0,0,0,0,0,0,0,0,0,0,0,0,0,0,0,0,0,0,0,0,0,0,0,0,0,0,0,0,0,0,0,0,0,0,0,0,0,0],"split_type":[0,0,0,0,0,0,0,0,0,0,0,0,0,0,0,0,0,0,0,0,0,0,0,0,0,0,0,0,0,0,0,0,0,0,0,0,0,0,0,0,0,0,0,0,0,0,0,0,0,0,0,0,0,0,0,0,0,0,0,0,0,0,0,0,0,0,0,0,0,0,0,0,0,0,0,0,0,0,0,0,0,0,0,0,0,0,0,0,0,0,0,0,0,0,0,0,0,0,0,0,0,0,0,0,0,0,0],"sum_hessian":[1.323E3,1E3,3.23E2,4.98E2,5.02E2,2.81E2,4.2E1,4.29E2,6.9E1,4.24E2,7.8E1,2.32E2,4.9E1,2.2E1,2E1,1.54E2,2.75E2,1.8E1,5.1E1,3.54E2,7E1,7.6E1,2E0,5.3E1,1.79E2,1.4E1,3.5E1,1E0,2.1E1,1E1,1E1,2.6E1,1.28E2,2.49E2,2.6E1,1.7E1,1E0,1E0,5E1,7.1E1,2.83E2,2.4E1,4.6E1,7.5E1,1E0,3E1,2.3E1,1.66E2,1.3E1,9E0,5E0,2.8E1,7E0,1.2E1,9E0,7E0,3E0,2E0,8E0,5E0,2.1E1,1E0,1.27E2,9.6E1,1.53E2,2E1,6E0,1.5E1,2E0,4.9E1,1E0,4.4E1,2.7E1,1.52E2,1.31E2,2.2E1,2E0,4E0,4.2E1,1.1E1,6.4E1,1.1E1,1.9E1,8E0,1.5E1,1.45E2,2.1E1,3E0,1E1,1E0,8E0,1E0,4E0,2.5E1,3E0,5E0,2E0,9E0,3E0,8E0,1E0,2E0,5E0,2E0,1E0,4E0,4E0],"tree_param":{"num_deleted":"0","num_feature":"8","num_nodes":"107","size_leaf_vector":"1"}},{"base_weights":[2.9307178E-3,-4.1069824E-1,1.280831E0,-7.6484156E-1,1.6760539E-1,1.5660523E0,-6.1947757E-1,-6.173143E-1,-1.6513724E0,4.0543863E-1,-1.086691E0,1.2790431E0,2.8721943E0,-1.2931483E0,1.4785126E-1,-1.1672212E0,-3.9138564E-1,-1.105233E0,-1.8166729E0,1.2970407E-1,8.9823526E-1,-1.1673176E0,4.305989E-2,2.2778203E0,9.723041E-1,4.1769123E0,2.2487786E0,4.02681E-2,-1.4251425E0,8.0194855E-1,-5.1968706E-1,-1.5262277E0,-1.0157614E0,-3.1575078E-1,-9.4742835E-1,-1.2680324E0,4.0277418E-1,-1.867646E-3,-1.8434724E0,9.034704E-2,1.3879333E-1,1.4315032E0,9.624119E-2,-9.354195E-1,-1.6852179E0,3.3497467E0,7.9833996E-1,7.142463E-1,1.4765157E0,5.303816E0,1.6025882E0,7.5229037E-1,2.5229998E0,-9.9995923E-1,-1.8353665E0,-5.008757E-3,2.215376E0,-7.1203135E-2,-1.604855E-1,-4.158091E-2,-8.8035904E-2,-5.423227E-2,7.655695E-4,1.0477285E-3,-2.3234237E-2,-9.115545E-2,-3.690711E-2,-7.2731905E-2,1.682402E-2,6.471107E-2,-3.450301E-2,-9.304449E-2,-1.8219067E-2,1.2993549E-2,-1.8835796E-2,9.631514E-2,2.1174572E-2,-6.54247E-2,2.3168785E-2,-5.150769E-2,1.2288878E-2,1.1554462E-2,-9.097151E-2,5.3664505E-2,2.2740667E-1,1.03544235E-1,7.6267063E-3,-3.1768665E-2,4.0770866E-2,2.1179056E-1,6.284886E-2,-2.3199046E-2,2.9981178E-1,-6.337466E-2,1.21505156E-1,1.1629404E-1,5.1189247E-3,1.6468132E-1,6.309508E-2,-6.2182724E-2,-7.03657E-3,-9.801264E-2,-1.778475E-2,-2.0956354E-2,4.1244876E-2,5.066788E-2,1.455358E-1,-4.240329E-2,1.573512E-3],"categories":[],"categories_nodes":[],"categories_segments":[],"categories_sizes":[],"default_left":[0,0,0,0,0,0,0,0,0,0,0,0,0,0,0,0,0,0,0,0,0,0,0,0,0,0,0,0,0,0,0,0,0,0,0,0,0,0,0,0,0,0,0,0,0,0,0,0,0,0,0,0,0,0,0,0,0,0,0,0,0,0,0,0,0,0,0,0,0,0,0,0,0,0,0,0,0,0,0,0,0,0,0,0,0,0,0,0,0,0,0,0,0,0,0,0,0,0,0,0,0,0,0,0,0,0,0,0,0],"id":7,"left_children":[1,3,5,7,9,11,13,15,17,19,21,23,25,27,29,31,33,35,37,39,41,43,-1,45,47,49,51,-1,53,55,57,59,61,63,65,67,69,-1,71,73,-1,75,77,79,81,83,85,87,89,91,93,95,97,99,101,103,105,-1,107,-1,-1,-1,-1,-1,-1,-1,-1,-1,-1,-1,-1,-1,-1,-1,-1,-1,-1,-1,-1,-1,-1,-1,-1,-1,-1,-1,-1,-1,-1,-1,-1,-1,-1,-1,-1,-1,-1,-1,-1,-1,-1,-1,-1,-1,-1,-1,-1,-1,-1],"loss_changes":[7.003614E2,2.0513533E2,1.7658093E2,8.0199646E1,1.1409798E2,1.02041016E2,2.2419056E1,6.588718E1,5.9365387E0,4.350132E1,1.0585457E1,6.916806E1,3.1276154E1,7.518551E0,9.586098E0,6.8778534E0,1.5682201E1,6.157297E0,3.0783386E0,2.1307247E1,4.9045166E1,5.5095215E0,0E0,8.296405E1,2.2366241E1,3.501538E1,1.2875229E1,0E0,2.001957E0,1.2557427E1,3.3448431E0,5.702446E0,7.9713516E0,1.6859081E1,6.9013367E0,6.7770844E0,3.815703E0,0E0,9.964447E-1,1.6329462E1,0E0,3.3598923E1,2.484548E1,5.0648804E0,4.792713E0,7.968884E1,1.9407726E1,1.703973E1,3.1022003E1,4.2719482E1,1.7330349E1,6.9207454E0,2.4998856E1,2.5470457E0,1.15065E0,3.0951715E0,3.9365005E-1,0E0,1.2145536E0,0E0,0E0,0E0,0E0,0E0,0E0,0E0,0E0,0E0,0E0,0E0,0E0,0E0,0E0,0E0,0E0,0E0,0E0,0E0,0E0,0E0,0E0,0E0,0E0,0E0,0E0,0E0,0E0,0E0,0E0,0E0,0E0,0E0,0E0,0E0,0E0,0E0,0E0,0E0,0E0,0E0,0E0,0E0,0E0,0E0,0E0,0E0,0E0,0E0,0E0],"parents":[2147483647,0,0,1,1,2,2,3,3,4,4,5,5,6,6,7,7,8,8,9,9,10,10,11,11,12,12,13,13,14,14,15,15,16,16,17,17,18,18,19,19,20,20,21,21,23,23,24,24,25,25,26,26,28,28,29,29,30,30,31,31,32,32,33,33,34,34,35,35,36,36,38,38,39,39,41,41,42,42,43,43,44,44,45,45,46,46,47,47,48,48,49,49,50,50,51,51,52,52,53,53,54,54,55,55,56,56,58,58],"right_children":[2,4,6,8,10,12,14,16,18,20,22,24,26,28,30,32,34,36,38,40,42,44,-1,46,48,50,52,-1,54,56,58,60,62,64,66,68,70,-1,72,74,-1,76,78,80,82,84,86,88,90,92,94,96,98,100,102,104,106,-1,108,-1,-1,-1,-1,-1,-1,-1,-1,-1,-1,-1,-1,-1,-1,-1,-1,-1,-1,-1,-1,-1,-1,-1,-1,-1,-1,-1,-1,-1,-1,-1,-1,-1,-1,-1,-1,-1,-1,-1,-1,-1,-1,-1,-1,-1,-1,-1,-1,-1,-1],"split_conditions":[4E0,2.857143E0,6E0,6E0,6E0,5.214286E0,4.357143E0,1.8571428E0,4E0,4E0,1E1,2E0,4E0,3E0,6E0,1.2857143E0,5E0,6E0,1.1428572E0,1.1E1,1.8E1,6E0,4.305989E-2,5E0,4.857143E0,4E0,3E0,4.02681E-2,4E0,5.428571E0,7E0,2E0,1.2E1,2E0,2.142857E0,5E0,2.4285715E0,-1.867646E-3,3.1E1,3E0,1.3879333E-1,5E0,2.4E1,4.142857E0,2.5714285E0,4.142857E0,3.7142856E0,2E0,3.857143E0,1E0,1.2E1,5E0,6E0,3E0,6E0,5E0,5E0,-7.1203135E-2,4.428571E0,-4.158091E-2,-8.8035904E-2,-5.423227E-2,7.655695E-4,1.0477285E-3,-2.3234237E-2,-9.115545E-2,-3.690711E-2,-7.2731905E-2,1.682402E-2,6.471107E-2,-3.450301E-2,-9.304449E-2,-1.8219067E-2,1.2993549E-2,-1.8835796E-2,9.631514E-2,2.1174572E-2,-6.54247E-2,2.3168785E-2,-5.150769E-2,1.2288878E-2,1.1554462E-2,-9.097151E-2,5.3664505E-2,2.2740667E-1,1.03544235E-1,7.6267063E-3,-3.1768665E-2,4.0770866E-2,2.1179056E-1,6.284886E-2,-2.3199046E-2,2.9981178E-1,-6.337466E-2,1.21505156E-1,1.1629404E-1,5.1189247E-3,1.6468132E-1,6.309508E-2,-6.2182724E-2,-7.03657E-3,-9.801264E-2,-1.778475E-2,-2.0956354E-2,4.1244876E-2,5.066788E-2,1.455358E-1,-4.240329E-2,1.573512E-3],"split_indices":[3,3,7,7,7,4,4,3,6,7,2,2,0,5,0,3,0,2,4,2,5,2,0,0,3,7,1,0,4,3,0,7,6,1,3,0,3,0,5,7,0,0,5,4,4,3,4,6,4,2,5,0,4,1,0,6,0,0,3,0,0,0,0,0,0,0,0,0,0,0,0,0,0,0,0,0,0,0,0,0,0,0,0,0,0,0,0,0,0,0,0,0,0,0,0,0,0,0,0,0,0,0,0,0,0,0,0,0,0],"split_type":[0,0,0,0,0,0,0,0,0,0,0,0,0,0,0,0,0,0,0,0,0,0,0,0,0,0,0,0,0,0,0,0,0,0,0,0,0,0,0,0,0,0,0,0,0,0,0,0,0,0,0,0,0,0,0,0,0,0,0,0,0,0,0,0,0,0,0,0,0,0,0,0,0,0,0,0,0,0,0,0,0,0,0,0,0,0,0,0,0,0,0,0,0,0,0,0,0,0,0,0,0,0,0,0,0,0,0,0,0],"sum_hessian":[1.323E3,1E3,3.23E2,6.2E2,3.8E2,2.81E2,4.2E1,5.33E2,8.7E1,3.2E2,6E1,2.32E2,4.9E1,2.2E1,2E1,1.54E2,3.79E2,2.2E1,6.5E1,2.06E2,1.14E2,5.8E1,2E0,5.3E1,1.79E2,1.4E1,3.5E1,1E0,2.1E1,1E1,1E1,4.3E1,1.11E2,3.35E2,4.4E1,2E1,2E0,1E0,6.4E1,2.04E2,2E0,6.8E1,4.6E1,4.2E1,1.6E1,3E1,2.3E1,1.2E2,5.9E1,9E0,5E0,6E0,2.9E1,1.2E1,9E0,7E0,3E0,2E0,8E0,1.2E1,3.1E1,1.04E2,7E0,1.03E2,2.32E2,7E0,3.7E1,1.8E1,2E0,1E0,1E0,6.3E1,1E0,1.5E2,5.4E1,4.5E1,2.3E1,9E0,3.7E1,3.9E1,3E0,1E0,1.5E1,1.1E1,1.9E1,7E0,1.6E1,8E0,1.12E2,3E0,5.6E1,1E0,8E0,1E0,4E0,1E0,5E0,1.7E1,1.2E1,9E0,3E0,8E0,1E0,5E0,2E0,2E0,1E0,1E0,7E0],"tree_param":{"num_deleted":"0","num_feature":"8","num_nodes":"109","size_leaf_vector":"1"}},{"base_weights":[3.5243372E-3,-3.9050257E-1,1.220862E0,-8.232235E-1,3.9553586E-2,1.4925717E0,-5.8944064E-1,-7.046568E-1,-1.5398012E0,2.6671115E-1,-1.1829973E0,1.2179917E0,2.742263E0,-1.2347842E0,1.4543292E-1,-1.1100413E0,-4.7444212E-1,-9.7832984E-1,-1.7153428E0,3.805677E-1,-3.0632803E-1,-1.2461592E0,4.162456E-2,2.1711931E0,9.252647E-1,2.187526E0,4.1528587E0,3.9261397E-2,-1.3622953E0,7.8153217E-1,-5.0388753E-1,-1.337492E0,-8.8573456E-1,-3.9887273E-1,-1.1565866E0,-1.1728889E0,6.30933E-2,-1.8209576E-3,-1.7475487E0,-1.1934043E-1,5.0596493E-1,-1.0080833E0,7.346374E-2,-1.2724242E0,1.8749578E-2,3.1913261E0,7.63055E-1,6.3519967E-1,1.3515401E0,3.0134623E0,7.2019297E-1,4.738124E0,3.1130066E-2,-9.5528585E-1,-1.7551779E0,-2.2223294E-3,2.1536582E0,-6.882969E-2,-1.5699792E-1,-8.757342E-2,-5.6630313E-2,-3.5139788E-2,-7.924994E-2,-3.3904675E-2,-1.1020493E-2,-6.727462E-2,-2.1232145E-2,-6.902435E-2,1.6263219E-2,-8.8414446E-2,-1.776359E-2,-2.3246482E-2,2.2016648E-2,3.359081E-2,4.811553E-3,-6.383576E-2,2.7685144E-3,-6.316885E-3,6.166172E-2,-7.420135E-2,-5.2244056E-2,5.120488E-2,2.1660486E-1,9.54555E-2,3.5354092E-3,9.123915E-2,2.0545943E-2,1.9303612E-1,4.6590205E-2,9.114735E-2,2.2489445E-1,-1.088889E-2,9.116354E-2,6.437951E-2,2.9355627E-1,-5.9384502E-2,-6.772694E-3,-9.365652E-2,-1.734013E-2,-4.0453326E-2,2.0078508E-2,4.897895E-2,1.418974E-1,-4.134321E-2,1.5046686E-3],"categories":[],"categories_nodes":[],"categories_segments":[],"categories_sizes":[],"default_left":[0,0,0,0,0,0,0,0,0,0,0,0,0,0,0,0,0,0,0,0,0,0,0,0,0,0,0,0,0,0,0,0,0,0,0,0,0,0,0,0,0,0,0,0,0,0,0,0,0,0,0,0,0,0,0,0,0,0,0,0,0,0,0,0,0,0,0,0,0,0,0,0,0,0,0,0,0,0,0,0,0,0,0,0,0,0,0,0,0,0,0,0,0,0,0,0,0,0,0,0,0,0,0,0,0],"id":8,"left_children":[1,3,5,7,9,11,13,15,17,19,21,23,25,27,29,31,33,35,37,39,41,43,-1,45,47,49,51,-1,53,55,57,59,61,63,65,67,-1,-1,69,71,73,75,77,79,-1,81,83,85,87,89,91,93,-1,95,97,99,101,-1,103,-1,-1,-1,-1,-1,-1,-1,-1,-1,-1,-1,-1,-1,-1,-1,-1,-1,-1,-1,-1,-1,-1,-1,-1,-1,-1,-1,-1,-1,-1,-1,-1,-1,-1,-1,-1,-1,-1,-1,-1,-1,-1,-1,-1,-1,-1],"loss_changes":[6.3555164E2,1.8631293E2,1.602479E2,4.1311127E1,1.400045E2,9.3425476E1,2.0572153E1,3.9603317E1,5.2211304E0,2.784539E1,1.1094276E1,6.3004547E1,3.0040985E1,6.993904E0,9.067482E0,6.723236E0,1.376627E1,9.761181E0,2.7480621E0,2.2314297E1,1.8997042E1,3.755783E0,0E0,7.513521E1,2.1398071E1,4.3882828E1,2.3909805E1,0E0,1.841259E0,1.1834295E1,3.113938E0,4.3776093E0,9.247803E0,1.230817E1,3.161892E0,6.0472736E0,0E0,0E0,8.4446716E-1,1.4130753E1,1.9234543E1,7.212631E0,1.1046824E1,2.108673E0,0E0,7.220514E1,1.890823E1,2.833144E1,7.223253E1,3.4214188E1,1.5916887E1,3.5444443E1,0E0,2.3160439E0,1.0116043E0,2.931278E0,4.3364906E-1,0E0,1.1528183E0,0E0,0E0,0E0,0E0,0E0,0E0,0E0,0E0,0E0,0E0,0E0,0E0,0E0,0E0,0E0,0E0,0E0,0E0,0E0,0E0,0E0,0E0,0E0,0E0,0E0,0E0,0E0,0E0,0E0,0E0,0E0,0E0,0E0,0E0,0E0,0E0,0E0,0E0,0E0,0E0,0E0,0E0,0E0,0E0,0E0,0E0],"parents":[2147483647,0,0,1,1,2,2,3,3,4,4,5,5,6,6,7,7,8,8,9,9,10,10,11,11,12,12,13,13,14,14,15,15,16,16,17,17,18,18,19,19,20,20,21,21,23,23,24,24,25,25,26,26,28,28,29,29,30,30,31,31,32,32,33,33,34,34,35,35,38,38,39,39,40,40,41,41,42,42,43,43,45,45,46,46,47,47,48,48,49,49,50,50,51,51,53,53,54,54,55,55,56,56,58,58],"right_children":[2,4,6,8,10,12,14,16,18,20,22,24,26,28,30,32,34,36,38,40,42,44,-1,46,48,50,52,-1,54,56,58,60,62,64,66,68,-1,-1,70,72,74,76,78,80,-1,82,84,86,88,90,92,94,-1,96,98,100,102,-1,104,-1,-1,-1,-1,-1,-1,-1,-1,-1,-1,-1,-1,-1,-1,-1,-1,-1,-1,-1,-1,-1,-1,-1,-1,-1,-1,-1,-1,-1,-1,-1,-1,-1,-1,-1,-1,-1,-1,-1,-1,-1,-1,-1,-1,-1,-1],"split_conditions":[4E0,2.5714285E0,6E0,6E0,6E0,5.214286E0,4.357143E0,1.8571428E0,4E0,6E0,1E1,2E0,6.285714E0,3E0,6E0,1.8571428E0,5E0,6E0,1.1428572E0,1E0,2.857143E0,4.857143E0,4.162456E-2,5E0,4.428571E0,5.642857E0,6E0,3.9261397E-2,4E0,5.428571E0,7E0,1.1428572E0,3E0,2E0,5E0,5E0,6.30933E-2,-1.8209576E-3,3.1E1,8E0,5E0,9E0,1.2E1,3E0,1.8749578E-2,4.142857E0,7E0,5E0,4.5E0,4E0,6E0,2E0,3.1130066E-2,3E0,6E0,2E0,5E0,-6.882969E-2,4.428571E0,-8.757342E-2,-5.6630313E-2,-3.5139788E-2,-7.924994E-2,-3.3904675E-2,-1.1020493E-2,-6.727462E-2,-2.1232145E-2,-6.902435E-2,1.6263219E-2,-8.8414446E-2,-1.776359E-2,-2.3246482E-2,2.2016648E-2,3.359081E-2,4.811553E-3,-6.383576E-2,2.7685144E-3,-6.316885E-3,6.166172E-2,-7.420135E-2,-5.2244056E-2,5.120488E-2,2.1660486E-1,9.54555E-2,3.5354092E-3,9.123915E-2,2.0545943E-2,1.9303612E-1,4.6590205E-2,9.114735E-2,2.2489445E-1,-1.088889E-2,9.116354E-2,6.437951E-2,2.9355627E-1,-5.9384502E-2,-6.772694E-3,-9.365652E-2,-1.734013E-2,-4.0453326E-2,2.0078508E-2,4.897895E-2,1.418974E-1,-4.134321E-2,1.5046686E-3],"split_indices":[3,3,7,7,7,4,4,3,6,0,2,2,3,5,0,4,0,2,4,7,4,4,0,0,4,4,2,0,4,3,0,3,0,2,7,0,0,0,5,6,1,6,6,4,0,3,5,5,4,2,0,2,0,1,0,2,0,0,3,0,0,0,0,0,0,0,0,0,0,0,0,0,0,0,0,0,0,0,0,0,0,0,0,0,0,0,0,0,0,0,0,0,0,0,0,0,0,0,0,0,0,0,0,0,0],"split_type":[0,0,0,0,0,0,0,0,0,0,0,0,0,0,0,0,0,0,0,0,0,0,0,0,0,0,0,0,0,0,0,0,0,0,0,0,0,0,0,0,0,0,0,0,0,0,0,0,0,0,0,0,0,0,0,0,0,0,0,0,0,0,0,0,0,0,0,0,0,0,0,0,0,0,0,0,0,0,0,0,0,0,0,0,0,0,0,0,0,0,0,0,0,0,0,0,0,0,0,0,0,0,0,0,0],"sum_hessian":[1.323E3,1E3,3.23E2,4.98E2,5.02E2,2.81E2,4.2E1,4.29E2,6.9E1,4.24E2,7.8E1,2.32E2,4.9E1,2.2E1,2E1,1.54E2,2.75E2,1.8E1,5.1E1,3.54E2,7E1,7.6E1,2E0,5.3E1,1.79E2,3.7E1,1.2E1,1E0,2.1E1,1E1,1E1,7.4E1,8E1,2.49E2,2.6E1,1.7E1,1E0,1E0,5E1,7.1E1,2.83E2,2.4E1,4.6E1,7.5E1,1E0,3E1,2.3E1,1.08E2,7.1E1,2.3E1,1.4E1,1E1,2E0,1.2E1,9E0,7E0,3E0,2E0,8E0,2.2E1,5.2E1,6.5E1,1.5E1,9.6E1,1.53E2,2E1,6E0,1.5E1,2E0,4.9E1,1E0,4.4E1,2.7E1,2.01E2,8.2E1,1.9E1,5E0,4E1,6E0,3.6E1,3.9E1,1.1E1,1.9E1,8E0,1.5E1,1.6E1,9.2E1,9E0,6.2E1,1.4E1,9E0,8E0,6E0,3E0,7E0,9E0,3E0,8E0,1E0,2E0,5E0,2E0,1E0,1E0,7E0],"tree_param":{"num_deleted":"0","num_feature":"8","num_nodes":"105","size_leaf_vector":"1"}},{"base_weights":[4.0303213E-3,-5.0444895E-1,8.6492306E-1,-1.0181082E0,-2.4671207E-1,1.1416842E0,-7.653738E-1,-9.162265E-1,-1.6013987E0,-8.560921E-2,-1.204204E0,7.208919E-1,1.803301E0,-1.2140342E0,-1.6977737E-2,-9.880751E-1,-1.6262569E-1,-7.787925E-1,-8.6182944E-2,-2.7446333E-1,2.220085E-1,-1.3621373E0,-7.7893716E-1,8.9456785E-1,1.2995733E-1,1.5839548E0,3.5939236E0,-1.3473684E0,-4.2894304E-1,-5.7142186E-1,6.66721E-1,-1.2885258E0,-8.279273E-1,-8.277657E-1,8.90106E-1,-1.0009166E0,1.3848794E-2,1.8298101E-1,-3.5720426E-1,-6.808736E-2,7.209504E-1,-5.84196E-1,-1.4593651E0,4.6246567E-1,-1.050341E0,7.3724556E-1,1.6974707E0,-6.711818E-1,3.4422508E-1,2.143107E0,9.877853E-1,9.027468E-1,4.640018E0,-1.5058522E0,-1.0039696E0,3.7493926E-2,-1.2862116E0,-1.0226352E0,7.6209307E-3,1.0467174E-1,1.9051639E0,-6.902038E-2,-8.564611E-4,-2.0434873E-2,-5.1558394E-2,-6.271758E-2,5.7724983E-2,9.022252E-2,1.8554308E-2,-1.7754317E-3,-5.9344824E-2,2.9541224E-2,-3.0932605E-2,-5.3987402E-2,-1.2524167E-2,-6.9653364E-3,1.3304721E-1,8.198987E-2,-8.299477E-3,-5.0958615E-2,6.1515965E-2,-8.113087E-2,-4.8513442E-2,-3.597719E-2,7.451599E-2,5.9084715E-3,-5.5903047E-2,6.761502E-2,2.515673E-2,3.6763202E-2,1.6199382E-1,-5.473848E-2,1.1275628E-2,9.853112E-2,9.60035E-3,1.4458138E-1,4.2804364E-2,6.271424E-2,-5.2334357E-2,6.8358975E-3,1.18322276E-1,2.8096297E-1,6.383605E-2,-8.1478514E-2,-4.315516E-2,-2.1992445E-2,-7.21297E-2,-7.144552E-2,-1.7885422E-2,-6.0486086E-2,-1.2261081E-2,2.9863084E-2,-2.3280792E-2,1.9326117E-2,-6.0799588E-2,1.3834997E-1,3.477762E-2],"categories":[],"categories_nodes":[],"categories_segments":[],"categories_sizes":[],"default_left":[0,0,0,0,0,0,0,0,0,0,0,0,0,0,0,0,0,0,0,0,0,0,0,0,0,0,0,0,0,0,0,0,0,0,0,0,0,0,0,0,0,0,0,0,0,0,0,0,0,0,0,0,0,0,0,0,0,0,0,0,0,0,0,0,0,0,0,0,0,0,0,0,0,0,0,0,0,0,0,0,0,0,0,0,0,0,0,0,0,0,0,0,0,0,0,0,0,0,0,0,0,0,0,0,0,0,0,0,0,0,0,0,0,0,0,0,0],"id":9,"left_children":[1,3,5,7,9,11,13,15,17,19,21,23,25,27,29,31,33,35,-1,37,39,41,43,45,47,49,51,53,55,57,59,61,63,65,67,69,-1,71,73,75,77,79,81,83,85,87,89,91,93,95,97,99,101,103,105,-1,107,109,111,113,115,-1,-1,-1,-1,-1,-1,-1,-1,-1,-1,-1,-1,-1,-1,-1,-1,-1,-1,-1,-1,-1,-1,-1,-1,-1,-1,-1,-1,-1,-1,-1,-1,-1,-1,-1,-1,-1,-1,-1,-1,-1,-1,-1,-1,-1,-1,-1,-1,-1,-1,-1,-1,-1,-1,-1,-1],"loss_changes":[5.800122E2,1.1002879E2,2.2286563E2,1.5053375E1,8.5662506E1,1.15907776E2,2.4155243E1,1.2780014E1,2.6805115E0,2.7772182E1,4.312088E0,2.646521E1,5.8328247E1,4.1326294E0,1.0995015E1,9.422592E0,1.6141506E1,1.9188104E0,0E0,1.1268774E1,2.6391945E1,3.4587936E0,8.571862E0,2.4011429E1,1.0530535E1,4.6885437E1,4.367006E1,5.562515E-1,9.049036E0,4.1881423E0,8.84944E0,8.620911E0,1.193322E1,1.3286639E1,3.6014605E0,1.0351338E0,0E0,1.5404795E1,1.908429E1,2.2916431E1,5.4874653E1,7.568077E0,2.417923E0,7.1470184E0,1.7147503E0,2.3654114E1,4.5109444E1,5.184658E0,1.1504847E1,6.977661E1,4.089241E1,6.403877E0,3.2347565E1,5.019798E-1,3.077032E0,0E0,1.5134811E-1,1.0123434E0,2.510412E0,4.1923056E0,2.2453508E0,0E0,0E0,0E0,0E0,0E0,0E0,0E0,0E0,0E0,0E0,0E0,0E0,0E0,0E0,0E0,0E0,0E0,0E0,0E0,0E0,0E0,0E0,0E0,0E0,0E0,0E0,0E0,0E0,0E0,0E0,0E0,0E0,0E0,0E0,0E0,0E0,0E0,0E0,0E0,0E0,0E0,0E0,0E0,0E0,0E0,0E0,0E0,0E0,0E0,0E0,0E0,0E0,0E0,0E0,0E0,0E0],"parents":[2147483647,0,0,1,1,2,2,3,3,4,4,5,5,6,6,7,7,8,8,9,9,10,10,11,11,12,12,13,13,14,14,15,15,16,16,17,17,19,19,20,20,21,21,22,22,23,23,24,24,25,25,26,26,27,27,28,28,29,29,30,30,31,31,32,32,33,33,34,34,35,35,37,37,38,38,39,39,40,40,41,41,42,42,43,43,44,44,45,45,46,46,47,47,48,48,49,49,50,50,51,51,52,52,53,53,54,54,56,56,57,57,58,58,59,59,60,60],"right_children":[2,4,6,8,10,12,14,16,18,20,22,24,26,28,30,32,34,36,-1,38,40,42,44,46,48,50,52,54,56,58,60,62,64,66,68,70,-1,72,74,76,78,80,82,84,86,88,90,92,94,96,98,100,102,104,106,-1,108,110,112,114,116,-1,-1,-1,-1,-1,-1,-1,-1,-1,-1,-1,-1,-1,-1,-1,-1,-1,-1,-1,-1,-1,-1,-1,-1,-1,-1,-1,-1,-1,-1,-1,-1,-1,-1,-1,-1,-1,-1,-1,-1,-1,-1,-1,-1,-1,-1,-1,-1,-1,-1,-1,-1,-1,-1,-1,-1],"split_conditions":[3.4285715E0,2.142857E0,6E0,6E0,6E0,4.571429E0,4.285714E0,6E0,1E0,2.857143E0,3E0,6E0,6.285714E0,1.1E1,5E0,1E0,1.7142857E0,1.9285715E0,-8.6182944E-2,1E0,4E0,3E0,9E0,2.6E1,2E0,3E0,2E0,1.7E1,4E0,5.285714E0,5.428571E0,7E0,2E0,1E1,1E0,1.1428572E0,1.3848794E-2,4E0,2.0714285E0,1.1E1,1.5E1,6E0,3E0,1E0,2E0,2E0,3.857143E0,3.5E0,2.9285715E0,5E0,6E0,1.1E1,6E0,6E0,8E0,3.7493926E-2,4E0,4.857143E0,5E0,5.142857E0,5E0,-6.902038E-2,-8.564611E-4,-2.0434873E-2,-5.1558394E-2,-6.271758E-2,5.7724983E-2,9.022252E-2,1.8554308E-2,-1.7754317E-3,-5.9344824E-2,2.9541224E-2,-3.0932605E-2,-5.3987402E-2,-1.2524167E-2,-6.9653364E-3,1.3304721E-1,8.198987E-2,-8.299477E-3,-5.0958615E-2,6.1515965E-2,-8.113087E-2,-4.8513442E-2,-3.597719E-2,7.451599E-2,5.9084715E-3,-5.5903047E-2,6.761502E-2,2.515673E-2,3.6763202E-2,1.6199382E-1,-5.473848E-2,1.1275628E-2,9.853112E-2,9.60035E-3,1.4458138E-1,4.2804364E-2,6.271424E-2,-5.2334357E-2,6.8358975E-3,1.18322276E-1,2.8096297E-1,6.383605E-2,-8.1478514E-2,-4.315516E-2,-2.1992445E-2,-7.21297E-2,-7.144552E-2,-1.7885422E-2,-6.0486086E-2,-1.2261081E-2,2.9863084E-2,-2.3280792E-2,1.9326117E-2,-6.0799588E-2,1.3834997E-1,3.477762E-2],"split_indices":[3,3,7,7,7,3,4,2,2,3,4,0,3,6,6,0,3,4,0,1,7,6,5,5,1,7,2,5,4,3,3,1,1,6,7,4,0,0,4,2,5,2,3,1,6,2,3,4,4,0,3,0,2,0,6,0,0,4,0,3,2,0,0,0,0,0,0,0,0,0,0,0,0,0,0,0,0,0,0,0,0,0,0,0,0,0,0,0,0,0,0,0,0,0,0,0,0,0,0,0,0,0,0,0,0,0,0,0,0,0,0,0,0,0,0,0,0],"split_type":[0,0,0,0,0,0,0,0,0,0,0,0,0,0,0,0,0,0,0,0,0,0,0,0,0,0,0,0,0,0,0,0,0,0,0,0,0,0,0,0,0,0,0,0,0,0,0,0,0,0,0,0,0,0,0,0,0,0,0,0,0,0,0,0,0,0,0,0,0,0,0,0,0,0,0,0,0,0,0,0,0,0,0,0,0,0,0,0,0,0,0,0,0,0,0,0,0,0,0,0,0,0,0,0,0,0,0,0,0,0,0,0,0,0,0,0,0],"sum_hessian":[1.323E3,8.32E2,4.91E2,2.77E2,5.55E2,4.2E2,7.1E1,2.38E2,3.9E1,4.76E2,7.9E1,2.58E2,1.62E2,4.4E1,2.7E1,2.17E2,2.1E1,6E0,3.3E1,2.95E2,1.81E2,5.6E1,2.3E1,1.99E2,5.9E1,1.46E2,1.6E1,3.7E1,7E0,1.5E1,1.2E1,7.3E1,1.44E2,1.3E1,8E0,5E0,1E0,4.5E1,2.5E2,1.15E2,6.6E1,7E0,4.9E1,4E0,1.9E1,1.68E2,3.1E1,1.2E1,4.7E1,7.4E1,7.2E1,5E0,1.1E1,2.3E1,1.4E1,3E0,4E0,8E0,7E0,9E0,3E0,6.8E1,5E0,4.8E1,9.6E1,1.1E1,2E0,2E0,6E0,1E0,4E0,3E1,1.5E1,3.1E1,2.19E2,1.13E2,2E0,3.2E1,3.4E1,6E0,1E0,3.5E1,1.4E1,2E0,2E0,1E0,1.8E1,4.5E1,1.23E2,2E1,1.1E1,8E0,4E0,3E0,4.4E1,4.6E1,2.8E1,6.4E1,8E0,4E0,1E0,8E0,3E0,1.8E1,5E0,7E0,7E0,3E0,1E0,6E0,2E0,3E0,4E0,8E0,1E0,1E0,2E0],"tree_param":{"num_deleted":"0","num_feature":"8","num_nodes":"117","size_leaf_vector":"1"}},{"base_weights":[4.3186913E-3,-4.7943085E-1,8.2334113E-1,-9.6781987E-1,-2.3437406E-1,1.0870321E0,-7.299538E-1,-8.7057453E-1,-1.5246652E0,-8.105227E-2,-1.1456255E0,8.962001E-1,2.453927E0,-1.1593456E0,-1.3789969E-2,-9.393221E-1,-1.4977688E-1,-7.46606E-1,-8.2000546E-2,-2.6096955E-1,2.1200581E-1,-1.2961196E0,-7.4046767E-1,7.8370816E-1,2.195805E0,1.9410207E0,3.8038821E0,-1.2857566E0,-4.1397554E-1,-5.4698604E-1,6.435121E-1,-1.1780651E0,-7.418025E-1,-7.867339E-1,8.576871E-1,-9.610575E-1,1.35025745E-2,1.7380172E-1,-3.3960906E-1,-6.359602E-2,6.860029E-1,-5.536665E-1,-1.3889897E0,4.470501E-1,-1.0003238E0,9.7764236E-1,1.4434512E-1,5.0980644E0,1.3787484E0,2.6780586E0,2.609406E-1,4.342963E0,2.7964536E-2,-1.4357526E0,-9.600458E-1,3.60879E-2,-1.2397673E0,-9.795865E-1,8.0626905E-3,9.5290735E-2,1.8531876E0,-6.740926E-2,-4.1909494E-2,-4.371195E-2,1.1077423E-3,-5.9843015E-2,5.580082E-2,8.72151E-2,1.7759128E-2,-1.731044E-3,-5.6971032E-2,5.3309616E-2,-8.6259125E-3,-5.137238E-2,-1.1900806E-2,-6.620121E-3,1.286123E-1,7.677752E-2,-9.1860555E-3,-4.8774675E-2,5.9978064E-2,-7.7187E-2,-4.6249483E-2,-3.477795E-2,7.2032124E-2,5.760759E-3,-5.3255018E-2,8.745402E-2,4.030257E-2,-9.766461E-3,3.0981997E-2,3.539072E-1,3.7930228E-2,1.3668182E-1,3.3002563E-2,1.62692E-1,4.5192428E-2,4.774427E-2,-7.695782E-2,6.031535E-2,2.6842105E-1,-7.7619E-2,-4.1357026E-2,-2.1030275E-2,-6.897402E-2,-6.876631E-2,-1.7438287E-2,-5.7893824E-2,-1.1852375E-2,2.8743217E-2,-2.2349557E-2,1.8467173E-2,-5.92796E-2,1.3489121E-1,3.3618364E-2],"categories":[],"categories_nodes":[],"categories_segments":[],"categories_sizes":[],"default_left":[0,0,0,0,0,0,0,0,0,0,0,0,0,0,0,0,0,0,0,0,0,0,0,0,0,0,0,0,0,0,0,0,0,0,0,0,0,0,0,0,0,0,0,0,0,0,0,0,0,0,0,0,0,0,0,0,0,0,0,0,0,0,0,0,0,0,0,0,0,0,0,0,0,0,0,0,0,0,0,0,0,0,0,0,0,0,0,0,0,0,0,0,0,0,0,0,0,0,0,0,0,0,0,0,0,0,0,0,0,0,0,0,0,0,0],"id":10,"left_children":[1,3,5,7,9,11,13,15,17,19,21,23,25,27,29,31,33,35,-1,37,39,41,43,45,47,49,51,53,55,57,59,61,63,65,67,69,-1,71,73,75,77,79,81,83,85,87,89,91,93,95,97,99,-1,101,103,-1,105,107,109,111,113,-1,-1,-1,-1,-1,-1,-1,-1,-1,-1,-1,-1,-1,-1,-1,-1,-1,-1,-1,-1,-1,-1,-1,-1,-1,-1,-1,-1,-1,-1,-1,-1,-1,-1,-1,-1,-1,-1,-1,-1,-1,-1,-1,-1,-1,-1,-1,-1,-1,-1,-1,-1,-1,-1],"loss_changes":[5.249658E2,9.946916E1,2.0231168E2,1.3726501E1,7.758852E1,1.0761746E2,2.2125092E1,1.1702499E1,2.365387E0,2.520573E1,3.9181747E0,5.2517517E1,2.7928986E1,3.7077599E0,1.0165177E1,9.406235E0,1.479242E1,1.7857006E0,0E0,1.0179321E1,2.3819098E1,3.161209E0,7.853204E0,4.238896E1,6.173906E1,4.7594223E1,2.0309296E1,4.7811508E-1,8.397847E0,3.8497267E0,8.444618E0,4.4784546E0,1.2362816E1,1.226087E1,3.3902063E0,9.520049E-1,0E0,1.4400361E1,1.7295212E1,2.1378656E1,4.9786522E1,7.0866346E0,2.162262E0,6.6784906E0,1.5679321E0,3.3403915E1,1.3198115E1,4.6185333E1,2.1565762E1,2.4641037E1,1.7708902E1,2.8905624E1,0E0,4.1950607E-1,2.8136826E0,0E0,1.2424946E-1,9.1701317E-1,2.3203614E0,3.9481845E0,2.1755276E0,0E0,0E0,0E0,0E0,0E0,0E0,0E0,0E0,0E0,0E0,0E0,0E0,0E0,0E0,0E0,0E0,0E0,0E0,0E0,0E0,0E0,0E0,0E0,0E0,0E0,0E0,0E0,0E0,0E0,0E0,0E0,0E0,0E0,0E0,0E0,0E0,0E0,0E0,0E0,0E0,0E0,0E0,0E0,0E0,0E0,0E0,0E0,0E0,0E0,0E0,0E0,0E0,0E0,0E0],"parents":[2147483647,0,0,1,1,2,2,3,3,4,4,5,5,6,6,7,7,8,8,9,9,10,10,11,11,12,12,13,13,14,14,15,15,16,16,17,17,19,19,20,20,21,21,22,22,23,23,24,24,25,25,26,26,27,27,28,28,29,29,30,30,31,31,32,32,33,33,34,34,35,35,37,37,38,38,39,39,40,40,41,41,42,42,43,43,44,44,45,45,46,46,47,47,48,48,49,49,50,50,51,51,53,53,54,54,56,56,57,57,58,58,59,59,60,60],"right_children":[2,4,6,8,10,12,14,16,18,20,22,24,26,28,30,32,34,36,-1,38,40,42,44,46,48,50,52,54,56,58,60,62,64,66,68,70,-1,72,74,76,78,80,82,84,86,88,90,92,94,96,98,100,-1,102,104,-1,106,108,110,112,114,-1,-1,-1,-1,-1,-1,-1,-1,-1,-1,-1,-1,-1,-1,-1,-1,-1,-1,-1,-1,-1,-1,-1,-1,-1,-1,-1,-1,-1,-1,-1,-1,-1,-1,-1,-1,-1,-1,-1,-1,-1,-1,-1,-1,-1,-1,-1,-1,-1,-1,-1,-1,-1,-1],"split_conditions":[3.4285715E0,2.142857E0,6E0,6E0,6E0,5.214286E0,4.285714E0,6E0,1E0,2.857143E0,3E0,5.428571E0,6.285714E0,1.1E1,5E0,1.9285715E0,1.7142857E0,1.9285715E0,-8.2000546E-2,1E0,4E0,3E0,9E0,6E0,1E0,5.714286E0,6E0,1.7E1,4E0,5.285714E0,5.428571E0,2E0,5E0,1E1,1E0,1.1428572E0,1.35025745E-2,1.2E1,2.0714285E0,1.1E1,1.6E1,6E0,3E0,1E0,2E0,6E0,4E0,5E0,1.4E1,6E0,5.857143E0,2E0,2.7964536E-2,6E0,8E0,3.60879E-2,4E0,4.857143E0,5E0,5.142857E0,5E0,-6.740926E-2,-4.1909494E-2,-4.371195E-2,1.1077423E-3,-5.9843015E-2,5.580082E-2,8.72151E-2,1.7759128E-2,-1.731044E-3,-5.6971032E-2,5.3309616E-2,-8.6259125E-3,-5.137238E-2,-1.1900806E-2,-6.620121E-3,1.286123E-1,7.677752E-2,-9.1860555E-3,-4.8774675E-2,5.9978064E-2,-7.7187E-2,-4.6249483E-2,-3.477795E-2,7.2032124E-2,5.760759E-3,-5.3255018E-2,8.745402E-2,4.030257E-2,-9.766461E-3,3.0981997E-2,3.539072E-1,3.7930228E-2,1.3668182E-1,3.3002563E-2,1.62692E-1,4.5192428E-2,4.774427E-2,-7.695782E-2,6.031535E-2,2.6842105E-1,-7.7619E-2,-4.1357026E-2,-2.1030275E-2,-6.897402E-2,-6.876631E-2,-1.7438287E-2,-5.7893824E-2,-1.1852375E-2,2.8743217E-2,-2.2349557E-2,1.8467173E-2,-5.92796E-2,1.3489121E-1,3.3618364E-2],"split_indices":[3,3,7,7,7,4,4,2,2,3,4,3,3,6,6,4,3,4,0,1,7,6,5,0,2,4,2,5,4,3,3,0,7,6,7,4,0,5,4,2,5,2,3,1,6,5,7,0,5,3,3,2,0,0,6,0,0,4,0,3,2,0,0,0,0,0,0,0,0,0,0,0,0,0,0,0,0,0,0,0,0,0,0,0,0,0,0,0,0,0,0,0,0,0,0,0,0,0,0,0,0,0,0,0,0,0,0,0,0,0,0,0,0,0,0],"split_type":[0,0,0,0,0,0,0,0,0,0,0,0,0,0,0,0,0,0,0,0,0,0,0,0,0,0,0,0,0,0,0,0,0,0,0,0,0,0,0,0,0,0,0,0,0,0,0,0,0,0,0,0,0,0,0,0,0,0,0,0,0,0,0,0,0,0,0,0,0,0,0,0,0,0,0,0,0,0,0,0,0,0,0,0,0,0,0,0,0,0,0,0,0,0,0,0,0,0,0,0,0,0,0,0,0,0,0,0,0,0,0,0,0,0,0],"sum_hessian":[1.323E3,8.32E2,4.91E2,2.77E2,5.55E2,4.2E2,7.1E1,2.38E2,3.9E1,4.76E2,7.9E1,3.7E2,5E1,4.4E1,2.7E1,2.17E2,2.1E1,6E0,3.3E1,2.95E2,1.81E2,5.6E1,2.3E1,3.42E2,2.8E1,3.8E1,1.2E1,3.7E1,7E0,1.5E1,1.2E1,9.6E1,1.21E2,1.3E1,8E0,5E0,1E0,4.5E1,2.5E2,1.15E2,6.6E1,7E0,4.9E1,4E0,1.9E1,2.62E2,8E1,5E0,2.3E1,2.6E1,1.2E1,1E1,2E0,2.3E1,1.4E1,3E0,4E0,8E0,7E0,9E0,3E0,6.2E1,3.4E1,1.03E2,1.8E1,1.1E1,2E0,2E0,6E0,1E0,4E0,1.2E1,3.3E1,3.1E1,2.19E2,1.13E2,2E0,3.3E1,3.3E1,6E0,1E0,3.5E1,1.4E1,2E0,2E0,1E0,1.8E1,4.6E1,2.16E2,4.7E1,3.3E1,3E0,2E0,7E0,1.6E1,1.9E1,7E0,9E0,3E0,3E0,7E0,1.8E1,5E0,7E0,7E0,3E0,1E0,6E0,2E0,3E0,4E0,8E0,1E0,1E0,2E0],"tree_param":{"num_deleted":"0","num_feature":"8","num_nodes":"115","size_leaf_vector":"1"}},{"base_weights":[4.7987313E-3,-3.37577E-1,1.0625558E0,-6.2873954E-1,1.378811E-1,1.2984627E0,-5.092656E-1,-5.077119E-1,-1.3560125E0,3.3234662E-1,-8.877142E-1,1.0779178E0,2.5685456E0,-7.850877E-1,7.955923E-1,-9.593364E-1,-3.2216054E-1,-8.925449E-1,-1.4969783E0,8.745686E-2,7.7025825E-1,-9.590843E-1,4.0590093E-2,1.8590858E0,8.3822095E-1,3.178364E0,1.2996359E0,-1.0479002E0,2.6574343E-1,1.9936335E0,-3.2195908E-1,-1.4046013E0,-8.5870475E-1,-2.5428137E-1,-8.2183254E-1,-1.0325458E0,3.849764E-1,-1.6877651E-3,-1.5189701E0,5.192223E-2,1.24325216E-1,1.2430054E0,5.983672E-2,-7.4170446E-1,-1.4525106E0,2.7464008E0,6.4895916E-1,5.4618865E-1,1.3779403E0,2.5748043E0,3.002566E-1,1.532815E-1,3.787627E-1,3.6440313E-2,-1.1373827E0,6.336109E-1,-2.6052678E-1,4.5229606E-2,1.3151895E-1,-3.7829604E-2,2.1999367E-1,-1.0758332E-2,-8.3257355E-2,3.5765935E-2,-4.382951E-2,2.2932661E-3,-1.9358056E-2,-8.066215E-2,-3.167963E-2,-5.977577E-2,1.7188847E-2,5.8478612E-2,-2.9605383E-2,-7.671765E-2,-1.336155E-2,-1.4405856E-2,1.4281104E-2,7.558648E-2,-1.5566696E-2,-3.327903E-2,3.6241364E-2,-6.433167E-2,-2.6879275E-2,1.5489704E-2,-7.910084E-2,4.3125592E-2,1.8460639E-1,9.393274E-2,3.3187238E-3,-1.3344276E-2,3.486486E-2,8.878568E-2,7.5180987E-3,2.1813877E-1,8.682188E-2,-7.2117254E-2,6.2098563E-2,-6.0600318E-2,-1.9331995E-2,3.907025E-3,3.764717E-2,-1.840361E-2,1.5527367E-3,1.5527367E-3,1.4946789E-2],"categories":[],"categories_nodes":[],"categories_segments":[],"categories_sizes":[],"default_left":[0,0,0,0,0,0,0,0,0,0,0,0,0,0,0,0,0,0,0,0,0,0,0,0,0,0,0,0,0,0,0,0,0,0,0,0,0,0,0,0,0,0,0,0,0,0,0,0,0,0,0,0,0,0,0,0,0,0,0,0,0,0,0,0,0,0,0,0,0,0,0,0,0,0,0,0,0,0,0,0,0,0,0,0,0,0,0,0,0,0,0,0,0,0,0,0,0,0,0,0,0,0,0,0,0],"id":11,"left_children":[1,3,5,7,9,11,13,15,17,19,21,23,25,27,29,31,33,35,37,39,41,43,-1,45,47,49,51,53,55,57,59,61,63,65,67,69,71,-1,73,75,-1,77,79,81,83,85,87,89,91,93,-1,-1,95,-1,97,99,101,-1,-1,-1,103,-1,-1,-1,-1,-1,-1,-1,-1,-1,-1,-1,-1,-1,-1,-1,-1,-1,-1,-1,-1,-1,-1,-1,-1,-1,-1,-1,-1,-1,-1,-1,-1,-1,-1,-1,-1,-1,-1,-1,-1,-1,-1,-1,-1],"loss_changes":[4.7984573E2,1.3866074E2,1.20801636E2,5.397203E1,7.628278E1,7.622232E1,1.6100685E1,4.4439896E1,4.4131775E0,3.43567E1,8.177551E0,4.375464E1,2.7595276E1,1.0220648E1,1.1352849E1,5.7390594E0,1.2679604E1,4.5111523E0,2.072525E0,1.7517494E1,3.8548347E1,5.2510643E0,0E0,5.834845E1,2.8721481E1,3.0603302E1,2.3232697E1,5.439476E0,1.7138541E0,3.943472E-1,1.3441982E0,8.009075E0,4.258667E0,1.3418583E1,5.681738E0,5.1212654E0,2.9923608E0,0E0,8.4158325E-1,1.6373056E1,0E0,2.929116E1,2.3155025E1,4.0912285E0,4.369999E0,5.382811E1,1.778535E1,1.5298183E1,3.1472359E1,2.8399734E1,0E0,0E0,1.9083303E1,0E0,1.1000366E0,2.7259278E-1,1.3686341E-1,0E0,0E0,0E0,3.546232E-2,0E0,0E0,0E0,0E0,0E0,0E0,0E0,0E0,0E0,0E0,0E0,0E0,0E0,0E0,0E0,0E0,0E0,0E0,0E0,0E0,0E0,0E0,0E0,0E0,0E0,0E0,0E0,0E0,0E0,0E0,0E0,0E0,0E0,0E0,0E0,0E0,0E0,0E0,0E0,0E0,0E0,0E0,0E0,0E0],"parents":[2147483647,0,0,1,1,2,2,3,3,4,4,5,5,6,6,7,7,8,8,9,9,10,10,11,11,12,12,13,13,14,14,15,15,16,16,17,17,18,18,19,19,20,20,21,21,23,23,24,24,25,25,26,26,27,27,28,28,29,29,30,30,31,31,32,32,33,33,34,34,35,35,36,36,38,38,39,39,41,41,42,42,43,43,44,44,45,45,46,46,47,47,48,48,49,49,52,52,54,54,55,55,56,56,60,60],"right_children":[2,4,6,8,10,12,14,16,18,20,22,24,26,28,30,32,34,36,38,40,42,44,-1,46,48,50,52,54,56,58,60,62,64,66,68,70,72,-1,74,76,-1,78,80,82,84,86,88,90,92,94,-1,-1,96,-1,98,100,102,-1,-1,-1,104,-1,-1,-1,-1,-1,-1,-1,-1,-1,-1,-1,-1,-1,-1,-1,-1,-1,-1,-1,-1,-1,-1,-1,-1,-1,-1,-1,-1,-1,-1,-1,-1,-1,-1,-1,-1,-1,-1,-1,-1,-1,-1,-1,-1],"split_conditions":[4E0,2.857143E0,6E0,6E0,6E0,5.357143E0,5.571429E0,1.8571428E0,4E0,4E0,1E1,2E0,6E0,4.571429E0,6E0,1.1428572E0,5E0,6E0,1.1428572E0,1.1E1,1.8E1,6E0,4.0590093E-2,5E0,5E0,6.428571E0,2E0,3E0,5.071429E0,5E0,8E0,1E0,1.0714285E0,2E0,2.142857E0,5E0,2.4285715E0,-1.6877651E-3,3.1E1,1.4E1,1.24325216E-1,7E0,2.6E1,2.7142856E0,2.5714285E0,4.142857E0,3.7142856E0,3E0,8E0,3E0,3.002566E-1,1.532815E-1,6E0,3.6440313E-2,8E0,2E0,1E1,4.5229606E-2,1.3151895E-1,-3.7829604E-2,1.1E1,-1.0758332E-2,-8.3257355E-2,3.5765935E-2,-4.382951E-2,2.2932661E-3,-1.9358056E-2,-8.066215E-2,-3.167963E-2,-5.977577E-2,1.7188847E-2,5.8478612E-2,-2.9605383E-2,-7.671765E-2,-1.336155E-2,-1.4405856E-2,1.4281104E-2,7.558648E-2,-1.5566696E-2,-3.327903E-2,3.6241364E-2,-6.433167E-2,-2.6879275E-2,1.5489704E-2,-7.910084E-2,4.3125592E-2,1.8460639E-1,9.393274E-2,3.3187238E-3,-1.3344276E-2,3.486486E-2,8.878568E-2,7.5180987E-3,2.1813877E-1,8.682188E-2,-7.2117254E-2,6.2098563E-2,-6.0600318E-2,-1.9331995E-2,3.907025E-3,3.764717E-2,-1.840361E-2,1.5527367E-3,1.5527367E-3,1.4946789E-2],"split_indices":[3,3,7,7,7,4,3,3,6,7,2,2,4,4,0,3,0,2,4,2,5,2,0,0,1,3,7,5,4,0,0,7,4,1,3,0,3,0,5,5,0,1,5,4,4,3,4,2,2,6,0,0,0,0,0,6,0,0,0,0,0,0,0,0,0,0,0,0,0,0,0,0,0,0,0,0,0,0,0,0,0,0,0,0,0,0,0,0,0,0,0,0,0,0,0,0,0,0,0,0,0,0,0,0,0],"split_type":[0,0,0,0,0,0,0,0,0,0,0,0,0,0,0,0,0,0,0,0,0,0,0,0,0,0,0,0,0,0,0,0,0,0,0,0,0,0,0,0,0,0,0,0,0,0,0,0,0,0,0,0,0,0,0,0,0,0,0,0,0,0,0,0,0,0,0,0,0,0,0,0,0,0,0,0,0,0,0,0,0,0,0,0,0,0,0,0,0,0,0,0,0,0,0,0,0,0,0,0,0,0,0,0,0],"sum_hessian":[1.323E3,1E3,3.23E2,6.2E2,3.8E2,2.81E2,4.2E1,5.33E2,8.7E1,3.2E2,6E1,2.41E2,4E1,3.5E1,7E0,1.54E2,3.79E2,2.2E1,6.5E1,2.06E2,1.14E2,5.8E1,2E0,5.5E1,1.86E2,2.6E1,1.4E1,2.8E1,7E0,3E0,4E0,2.6E1,1.28E2,3.35E2,4.4E1,2E1,2E0,1E0,6.4E1,2.04E2,2E0,6.8E1,4.6E1,4.2E1,1.6E1,3.1E1,2.4E1,1.22E2,6.4E1,2.3E1,3E0,4E0,1E1,1E0,2.7E1,4E0,3E0,2E0,1E0,2E0,2E0,5E0,2.1E1,1E0,1.27E2,1.03E2,2.32E2,7E0,3.7E1,1.8E1,2E0,1E0,1E0,6.3E1,1E0,8.3E1,1.21E2,5.8E1,1E1,2.2E1,2.4E1,1E1,3.2E1,1E0,1.5E1,1.1E1,2E1,7E0,1.7E1,1.9E1,1.03E2,4.8E1,1.6E1,6E0,1.7E1,3E0,7E0,2.4E1,3E0,1E0,3E0,2E0,1E0,1E0,1E0],"tree_param":{"num_deleted":"0","num_feature":"8","num_nodes":"105","size_leaf_vector":"1"}},{"base_weights":[5.3623505E-3,-3.2096186E-1,1.0135264E0,-7.917337E-1,-5.186798E-2,1.237764E0,-4.8062488E-1,-6.962767E-1,-1.3510852E0,1.13795556E-1,-9.769996E-1,1.0258517E0,2.4583738E0,-7.463553E-1,7.7524E-1,-1.022872E0,-5.426525E-1,-1.645571E-3,-1.3762865E0,-1.7954552E-1,3.1631243E-1,-1.3075247E0,-7.941638E-1,1.7719347E0,7.9693997E-1,3.0418613E0,1.244205E0,-9.970049E-1,2.5554413E-1,1.938139E0,-3.101271E-1,-1.1393998E0,-4.3519723E-1,-4.0746266E-1,-1.106447E0,-8.4861237E-1,-1.440948E0,-1.0241266E-1,-8.7609816E-1,8.36841E-2,7.3229295E-1,-4.1992003E-1,-6.911439E-2,-8.5674405E-1,3.9237093E-2,2.5844564E0,4.9377516E-1,5.190541E-1,1.3105248E0,2.4587705E0,2.88997E-1,1.4715022E-1,3.5891384E-1,3.5529304E-2,-1.0833684E0,6.102412E-1,-2.5171322E-1,4.372195E-2,1.2823097E-1,-3.656862E-2,2.1449383E-1,-3.5820752E-2,-6.321456E-2,2.8125659E-2,-4.9046423E-2,-3.711374E-2,-1.1316175E-2,-6.257763E-2,2.743338E-2,-1.8219292E-2,-6.208712E-2,-5.73959E-2,-8.186549E-2,-1.6654648E-2,6.695269E-3,-5.0504487E-2,-1.0925438E-2,2.4662795E-3,1.2018105E-1,5.908624E-2,2.845396E-3,9.164608E-3,-5.5738915E-2,-2.8728662E-2,-5.6474127E-2,1.7594229E-1,2.890859E-2,5.035905E-2,-4.1180354E-2,-1.2710424E-2,3.313838E-2,8.4437E-2,7.1643046E-3,2.0878997E-1,8.272194E-2,-6.941285E-2,5.9381753E-2,-5.7691503E-2,-1.8607048E-2,3.8093508E-3,3.62354E-2,-1.779016E-2,1.5139163E-3,1.5139163E-3,1.4573121E-2],"categories":[],"categories_nodes":[],"categories_segments":[],"categories_sizes":[],"default_left":[0,0,0,0,0,0,0,0,0,0,0,0,0,0,0,0,0,0,0,0,0,0,0,0,0,0,0,0,0,0,0,0,0,0,0,0,0,0,0,0,0,0,0,0,0,0,0,0,0,0,0,0,0,0,0,0,0,0,0,0,0,0,0,0,0,0,0,0,0,0,0,0,0,0,0,0,0,0,0,0,0,0,0,0,0,0,0,0,0,0,0,0,0,0,0,0,0,0,0,0,0,0,0,0,0],"id":12,"left_children":[1,3,5,7,9,11,13,15,17,19,21,23,25,27,29,31,33,-1,35,37,39,41,43,45,47,49,51,53,55,57,59,61,63,65,67,69,71,73,75,77,79,81,-1,83,-1,85,87,89,91,93,-1,-1,95,-1,97,99,101,-1,-1,-1,103,-1,-1,-1,-1,-1,-1,-1,-1,-1,-1,-1,-1,-1,-1,-1,-1,-1,-1,-1,-1,-1,-1,-1,-1,-1,-1,-1,-1,-1,-1,-1,-1,-1,-1,-1,-1,-1,-1,-1,-1,-1,-1,-1,-1],"loss_changes":[4.3590588E2,1.2676742E2,1.09149414E2,1.8494675E1,9.789143E1,7.042084E1,1.4928628E1,1.5149078E1,1.6821213E0,3.225513E1,4.823494E0,3.9918365E1,2.5261856E1,9.295305E0,1.0698447E1,6.2837067E0,1.5936314E1,0E0,5.1732635E-1,1.183769E1,3.1001518E1,1.6094322E0,7.09486E0,5.6881668E1,2.6008026E1,2.8895233E1,2.1502695E1,5.0465584E0,1.5929873E0,4.2294502E-1,1.2618454E0,3.4260635E0,1.0352457E1,1.0445337E1,1.05335045E1,1.0704384E0,6.522598E-1,1.1001901E1,1.7177391E0,1.6381323E1,3.48398E1,1.880918E0,0E0,4.1994324E0,0E0,6.1703644E1,1.6385612E1,1.3837254E1,2.8453407E1,2.6236847E1,0E0,0E0,1.7575834E1,0E0,9.738121E-1,2.5044382E-1,1.2818307E-1,0E0,0E0,0E0,3.3711433E-2,0E0,0E0,0E0,0E0,0E0,0E0,0E0,0E0,0E0,0E0,0E0,0E0,0E0,0E0,0E0,0E0,0E0,0E0,0E0,0E0,0E0,0E0,0E0,0E0,0E0,0E0,0E0,0E0,0E0,0E0,0E0,0E0,0E0,0E0,0E0,0E0,0E0,0E0,0E0,0E0,0E0,0E0,0E0,0E0],"parents":[2147483647,0,0,1,1,2,2,3,3,4,4,5,5,6,6,7,7,8,8,9,9,10,10,11,11,12,12,13,13,14,14,15,15,16,16,18,18,19,19,20,20,21,21,22,22,23,23,24,24,25,25,26,26,27,27,28,28,29,29,30,30,31,31,32,32,33,33,34,34,35,35,36,36,37,37,38,38,39,39,40,40,41,41,43,43,45,45,46,46,47,47,48,48,49,49,52,52,54,54,55,55,56,56,60,60],"right_children":[2,4,6,8,10,12,14,16,18,20,22,24,26,28,30,32,34,-1,36,38,40,42,44,46,48,50,52,54,56,58,60,62,64,66,68,70,72,74,76,78,80,82,-1,84,-1,86,88,90,92,94,-1,-1,96,-1,98,100,102,-1,-1,-1,104,-1,-1,-1,-1,-1,-1,-1,-1,-1,-1,-1,-1,-1,-1,-1,-1,-1,-1,-1,-1,-1,-1,-1,-1,-1,-1,-1,-1,-1,-1,-1,-1,-1,-1,-1,-1,-1,-1,-1,-1,-1,-1,-1,-1],"split_conditions":[4E0,2.2857144E0,6E0,6E0,6E0,5.357143E0,5.571429E0,1.8571428E0,1.1428572E0,2.857143E0,2.7142856E0,2E0,6E0,4.571429E0,6E0,2E0,2.6E1,-1.645571E-3,1E0,6E0,4E0,2E0,1E1,3E0,5E0,6.428571E0,2E0,3E0,5.071429E0,5E0,8E0,1E0,1.2E1,2E0,3.2142856E0,4E0,1E0,1.8E1,5E0,1.1E1,1.8E1,2E0,-6.911439E-2,4E0,3.9237093E-2,1.7E1,8E0,3E0,8E0,3E0,2.88997E-1,1.4715022E-1,6E0,3.5529304E-2,8E0,2E0,1E1,4.372195E-2,1.2823097E-1,-3.656862E-2,1.1E1,-3.5820752E-2,-6.321456E-2,2.8125659E-2,-4.9046423E-2,-3.711374E-2,-1.1316175E-2,-6.257763E-2,2.743338E-2,-1.8219292E-2,-6.208712E-2,-5.73959E-2,-8.186549E-2,-1.6654648E-2,6.695269E-3,-5.0504487E-2,-1.0925438E-2,2.4662795E-3,1.2018105E-1,5.908624E-2,2.845396E-3,9.164608E-3,-5.5738915E-2,-2.8728662E-2,-5.6474127E-2,1.7594229E-1,2.890859E-2,5.035905E-2,-4.1180354E-2,-1.2710424E-2,3.313838E-2,8.4437E-2,7.1643046E-3,2.0878997E-1,8.272194E-2,-6.941285E-2,5.9381753E-2,-5.7691503E-2,-1.8607048E-2,3.8093508E-3,3.62354E-2,-1.779016E-2,1.5139163E-3,1.5139163E-3,1.4573121E-2],"split_indices":[3,3,7,7,7,4,3,4,4,3,4,2,4,4,0,3,5,0,2,0,7,6,2,7,1,3,7,5,4,0,0,1,5,2,4,6,1,5,1,2,5,1,0,0,0,5,0,2,2,6,0,0,0,0,0,6,0,0,0,0,0,0,0,0,0,0,0,0,0,0,0,0,0,0,0,0,0,0,0,0,0,0,0,0,0,0,0,0,0,0,0,0,0,0,0,0,0,0,0,0,0,0,0,0,0],"split_type":[0,0,0,0,0,0,0,0,0,0,0,0,0,0,0,0,0,0,0,0,0,0,0,0,0,0,0,0,0,0,0,0,0,0,0,0,0,0,0,0,0,0,0,0,0,0,0,0,0,0,0,0,0,0,0,0,0,0,0,0,0,0,0,0,0,0,0,0,0,0,0,0,0,0,0,0,0,0,0,0,0,0,0,0,0,0,0,0,0,0,0,0,0,0,0,0,0,0,0,0,0,0,0,0,0],"sum_hessian":[1.323E3,1E3,3.23E2,3.63E2,6.37E2,2.81E2,4.2E1,3.12E2,5.1E1,5.41E2,9.6E1,2.41E2,4E1,3.5E1,7E0,9.8E1,2.14E2,1E0,5E1,2.21E2,3.2E2,3.2E1,6.4E1,5.5E1,1.86E2,2.6E1,1.4E1,2.8E1,7E0,3E0,4E0,8.1E1,1.7E1,1.74E2,4E1,7E0,4.3E1,2E2,2.1E1,2.06E2,1.14E2,3E0,2.9E1,6.2E1,2E0,3.3E1,2.2E1,1.22E2,6.4E1,2.3E1,3E0,4E0,1E1,1E0,2.7E1,4E0,3E0,2E0,1E0,2E0,2E0,2E1,6.1E1,6E0,1.1E1,6E1,1.14E2,3.7E1,3E0,4E0,3E0,2E1,2.3E1,1.01E2,9.9E1,1.7E1,4E0,2.04E2,2E0,6.8E1,4.6E1,2E0,1E0,3.2E1,3E1,2.2E1,1.1E1,1.6E1,6E0,1.9E1,1.03E2,4.8E1,1.6E1,6E0,1.7E1,3E0,7E0,2.4E1,3E0,1E0,3E0,2E0,1E0,1E0,1E0],"tree_param":{"num_deleted":"0","num_feature":"8","num_nodes":"105","size_leaf_vector":"1"}},{"base_weights":[5.626698E-3,-3.0538648E-1,9.6648645E-1,-6.452412E-1,3.2372728E-2,1.1795769E0,-4.5346642E-1,-5.538984E-1,-1.1971291E0,2.1092102E-1,-9.2858166E-1,9.7590655E-1,2.3529584E0,-7.0950973E-1,7.554119E-1,-8.702256E-1,-3.74244E-1,-7.325343E-1,-1.3438631E0,3.184306E-1,-3.295976E-1,-9.822558E-1,3.792919E-2,1.3650151E0,5.755168E-1,2.9112687E0,1.191136E0,-9.4856054E-1,2.4573797E-1,1.8842201E0,-2.9871708E-1,-1.286757E0,-7.762987E-1,-6.235385E-1,-2.1027172E-1,-9.015303E-1,5.7734866E-2,-1.6044319E-3,-1.368955E0,-1.2727301E-1,4.3030465E-1,-9.3203497E-1,-2.139472E-3,-8.449989E-1,-1.3567771E0,1.7370671E0,-8.392502E-3,4.3092617E-1,2.5639937E0,2.3479786E0,2.781596E-1,1.4126423E-1,3.4005615E-1,3.464107E-2,-1.031925E0,5.877381E-1,-2.4319667E-1,4.2264555E-2,1.250252E-1,-3.5349663E-2,2.0913148E-1,-8.565178E-3,-7.662413E-2,-4.1402403E-2,-7.29461E-3,-1.4571707E-2,-4.0974602E-2,-1.2827583E-2,1.210321E-1,-5.39744E-2,1.7404383E-2,-6.932434E-2,-1.2309295E-2,-3.7257772E-2,7.974918E-3,2.9464012E-2,1.9107845E-3,-5.915655E-2,3.0145347E-3,-9.583626E-3,5.5414416E-2,-6.485991E-2,-3.0741671E-2,1.683032E-2,-7.3477715E-2,3.608592E-2,1.22471415E-1,-2.1118058E-2,6.173561E-2,1.1621212E-2,8.161121E-2,1.4299294E-1,1.2323463E-2,1.9984183E-1,7.881564E-2,-6.680987E-2,5.6783795E-2,-3.5488483E-2,-6.1459035E-2,3.7141144E-3,3.4876574E-2,-1.7197156E-2,1.4760674E-3,1.4760674E-3,1.4208794E-2],"categories":[],"categories_nodes":[],"categories_segments":[],"categories_sizes":[],"default_left":[0,0,0,0,0,0,0,0,0,0,0,0,0,0,0,0,0,0,0,0,0,0,0,0,0,0,0,0,0,0,0,0,0,0,0,0,0,0,0,0,0,0,0,0,0,0,0,0,0,0,0,0,0,0,0,0,0,0,0,0,0,0,0,0,0,0,0,0,0,0,0,0,0,0,0,0,0,0,0,0,0,0,0,0,0,0,0,0,0,0,0,0,0,0,0,0,0,0,0,0,0,0,0,0,0],"id":13,"left_children":[1,3,5,7,9,11,13,15,17,19,21,23,25,27,29,31,33,35,37,39,41,43,-1,45,47,49,51,53,55,57,59,61,63,65,67,69,-1,-1,71,73,75,77,79,81,83,85,87,89,91,93,-1,-1,95,-1,97,99,101,-1,-1,-1,103,-1,-1,-1,-1,-1,-1,-1,-1,-1,-1,-1,-1,-1,-1,-1,-1,-1,-1,-1,-1,-1,-1,-1,-1,-1,-1,-1,-1,-1,-1,-1,-1,-1,-1,-1,-1,-1,-1,-1,-1,-1,-1,-1,-1],"loss_changes":[3.9595935E2,1.14924736E2,9.857028E1,2.449199E1,8.649897E1,6.5096924E1,1.3845558E1,2.4111053E1,3.787613E0,2.4802101E1,7.899147E0,3.691681E1,2.3127243E1,8.4537945E0,1.0082125E1,5.0652466E0,1.1151043E1,7.100753E0,1.6676483E0,1.7756008E1,1.4004391E1,2.81176E0,0E0,6.2354034E1,3.3684437E1,2.7270401E1,1.9901104E1,4.68309E0,1.4806615E0,4.4744587E-1,1.1845669E0,7.1380577E0,4.087578E0,6.8545723E0,2.1076447E1,4.378582E0,0E0,0E0,6.6254425E-1,1.28766E1,1.767994E1,6.300556E0,1.0104177E1,5.3432007E0,4.123188E0,6.766855E1,1.4415867E1,2.680507E1,4.780529E0,2.4236557E1,0E0,0E0,1.618775E1,0E0,9.0688133E-1,2.3005605E-1,1.20055154E-1,0E0,0E0,0E0,3.2046944E-2,0E0,0E0,0E0,0E0,0E0,0E0,0E0,0E0,0E0,0E0,0E0,0E0,0E0,0E0,0E0,0E0,0E0,0E0,0E0,0E0,0E0,0E0,0E0,0E0,0E0,0E0,0E0,0E0,0E0,0E0,0E0,0E0,0E0,0E0,0E0,0E0,0E0,0E0,0E0,0E0,0E0,0E0,0E0,0E0],"parents":[2147483647,0,0,1,1,2,2,3,3,4,4,5,5,6,6,7,7,8,8,9,9,10,10,11,11,12,12,13,13,14,14,15,15,16,16,17,17,18,18,19,19,20,20,21,21,23,23,24,24,25,25,26,26,27,27,28,28,29,29,30,30,31,31,32,32,33,33,34,34,35,35,38,38,39,39,40,40,41,41,42,42,43,43,44,44,45,45,46,46,47,47,48,48,49,49,52,52,54,54,55,55,56,56,60,60],"right_children":[2,4,6,8,10,12,14,16,18,20,22,24,26,28,30,32,34,36,38,40,42,44,-1,46,48,50,52,54,56,58,60,62,64,66,68,70,-1,-1,72,74,76,78,80,82,84,86,88,90,92,94,-1,-1,96,-1,98,100,102,-1,-1,-1,104,-1,-1,-1,-1,-1,-1,-1,-1,-1,-1,-1,-1,-1,-1,-1,-1,-1,-1,-1,-1,-1,-1,-1,-1,-1,-1,-1,-1,-1,-1,-1,-1,-1,-1,-1,-1,-1,-1,-1,-1,-1,-1,-1,-1],"split_conditions":[4E0,2.5714285E0,6E0,6E0,6E0,5.357143E0,5.571429E0,1.8571428E0,4E0,6E0,1E1,3E0,6E0,4.571429E0,6E0,1.1428572E0,2E0,6E0,1.1428572E0,1E0,2.857143E0,6E0,3.792919E-2,6E0,2.9E1,6.428571E0,2E0,3E0,5.071429E0,5E0,8E0,1E0,1.2E1,2E0,3.1E1,5E0,5.7734866E-2,-1.6044319E-3,3.1E1,2.7857144E0,5E0,9E0,1.2E1,2.7142856E0,2.5714285E0,1E0,5.285714E0,8E0,9E0,3E0,2.781596E-1,1.4126423E-1,6E0,3.464107E-2,4E0,2E0,1E1,4.2264555E-2,1.250252E-1,-3.5349663E-2,1.1E1,-8.565178E-3,-7.662413E-2,-4.1402403E-2,-7.29461E-3,-1.4571707E-2,-4.0974602E-2,-1.2827583E-2,1.210321E-1,-5.39744E-2,1.7404383E-2,-6.932434E-2,-1.2309295E-2,-3.7257772E-2,7.974918E-3,2.9464012E-2,1.9107845E-3,-5.915655E-2,3.0145347E-3,-9.583626E-3,5.5414416E-2,-6.485991E-2,-3.0741671E-2,1.683032E-2,-7.3477715E-2,3.608592E-2,1.22471415E-1,-2.1118058E-2,6.173561E-2,1.1621212E-2,8.161121E-2,1.4299294E-1,1.2323463E-2,1.9984183E-1,7.881564E-2,-6.680987E-2,5.6783795E-2,-3.5488483E-2,-6.1459035E-2,3.7141144E-3,3.4876574E-2,-1.7197156E-2,1.4760674E-3,1.4760674E-3,1.4208794E-2],"split_indices":[3,3,7,7,7,4,3,3,6,0,2,7,4,4,0,3,2,2,4,7,4,2,0,0,5,3,7,5,4,0,0,7,6,1,5,0,0,0,5,4,1,6,6,4,4,7,3,1,0,6,0,0,0,0,4,6,0,0,0,0,0,0,0,0,0,0,0,0,0,0,0,0,0,0,0,0,0,0,0,0,0,0,0,0,0,0,0,0,0,0,0,0,0,0,0,0,0,0,0,0,0,0,0,0,0],"split_type":[0,0,0,0,0,0,0,0,0,0,0,0,0,0,0,0,0,0,0,0,0,0,0,0,0,0,0,0,0,0,0,0,0,0,0,0,0,0,0,0,0,0,0,0,0,0,0,0,0,0,0,0,0,0,0,0,0,0,0,0,0,0,0,0,0,0,0,0,0,0,0,0,0,0,0,0,0,0,0,0,0,0,0,0,0,0,0,0,0,0,0,0,0,0,0,0,0,0,0,0,0,0,0,0,0],"sum_hessian":[1.323E3,1E3,3.23E2,4.98E2,5.02E2,2.81E2,4.2E1,4.29E2,6.9E1,4.24E2,7.8E1,2.41E2,4E1,3.5E1,7E0,1.54E2,2.75E2,1.8E1,5.1E1,3.54E2,7E1,7.6E1,2E0,1.21E2,1.2E2,2.6E1,1.4E1,2.8E1,7E0,3E0,4E0,2.6E1,1.28E2,1.08E2,1.67E2,1.7E1,1E0,1E0,5E1,7.1E1,2.83E2,2.4E1,4.6E1,5.8E1,1.8E1,9.5E1,2.6E1,1.13E2,7E0,2.3E1,3E0,4E0,1E1,1E0,2.7E1,4E0,3E0,2E0,1E0,2E0,2E0,5E0,2.1E1,1.18E2,1E1,4.1E1,6.7E1,1.65E2,2E0,1.5E1,2E0,4.9E1,1E0,2.2E1,4.9E1,2.01E2,8.2E1,1.9E1,5E0,4E1,6E0,1.8E1,4E1,1E0,1.7E1,4E1,5.5E1,2E1,6E0,9.8E1,1.5E1,6E0,1E0,6E0,1.7E1,3E0,7E0,1.2E1,1.5E1,1E0,3E0,2E0,1E0,1E0,1E0],"tree_param":{"num_deleted":"0","num_feature":"8","num_nodes":"105","size_leaf_vector":"1"}},{"base_weights":[6.084146E-3,-3.9585006E-1,6.865823E-1,-7.994085E-1,-1.9335887E-1,9.0423596E-1,-5.9562266E-1,-7.194164E-1,-1.2573762E0,-6.875466E-2,-9.338946E-1,6.2814635E-1,1.5915262E0,-9.745482E-1,3.4637034E-2,-7.8386146E-1,-4.812366E-2,-5.9900355E-1,-1.3559418E0,-2.113147E-1,1.6347902E-1,-1.0682089E0,-5.759856E-1,1.1901422E0,5.119165E-1,2.1757882E0,9.0759116E-1,-1.085333E0,-3.2650173E-1,-4.4964337E-1,6.280101E-1,-1.047161E0,-6.4408195E-1,-6.388335E-1,8.761054E-1,-8.085991E-1,1.6464246E-2,-1.375046E0,-1.8137602E-2,1.9035362E-1,-2.8408533E-1,1.15129486E-1,1.1431253E-1,-4.4951403E-1,-1.145836E0,5.1232636E-1,-8.192643E-1,3.6188645E0,9.0644526E-1,2.8957582E-1,9.089122E-1,3.067734E0,9.1943866E-1,3.94392E-1,1.913232E0,-1.3139787E0,-8.5931903E-1,3.3852264E-2,-1.064039E0,-8.235722E-1,2.7231991E-2,1.0440825E0,-5.6917346E-1,-5.679185E-2,7.3569617E-3,-1.2751877E-2,-4.169848E-2,-5.141294E-2,5.6590587E-2,8.6025976E-2,1.945279E-2,-1.5643239E-3,-4.7890216E-2,-1.8749341E-2,-6.972898E-2,7.217192E-2,-1.6847526E-3,-4.6138205E-2,-9.494766E-3,-6.9130347E-3,2.7552953E-2,-4.17698E-2,5.629149E-2,-6.400405E-2,-3.7362948E-2,-3.0277941E-2,7.2971806E-2,6.16377E-3,-4.3767992E-2,2.3198536E-1,6.95867E-2,6.298329E-2,-3.6244653E-2,2.5146306E-2,-1.685253E-2,1.110742E-2,7.1486436E-2,4.0528547E-2,1.7836931E-1,9.439978E-2,3.7510574E-3,6.178915E-3,1.1056049E-1,2.1659493E-1,5.9449416E-2,-7.146036E-2,-1.4992182E-2,-2.6858551E-2,-5.6631666E-2,-5.9427466E-2,-1.4149952E-2,-4.8333373E-2,-1.0757963E-2,2.691254E-2,-1.9351473E-2,7.3249206E-2,2.3242086E-3,-4.8457287E-2,1.5768582E-2],"categories":[],"categories_nodes":[],"categories_segments":[],"categories_sizes":[],"default_left":[0,0,0,0,0,0,0,0,0,0,0,0,0,0,0,0,0,0,0,0,0,0,0,0,0,0,0,0,0,0,0,0,0,0,0,0,0,0,0,0,0,0,0,0,0,0,0,0,0,0,0,0,0,0,0,0,0,0,0,0,0,0,0,0,0,0,0,0,0,0,0,0,0,0,0,0,0,0,0,0,0,0,0,0,0,0,0,0,0,0,0,0,0,0,0,0,0,0,0,0,0,0,0,0,0,0,0,0,0,0,0,0,0,0,0,0,0,0,0],"id":14,"left_children":[1,3,5,7,9,11,13,15,17,19,21,23,25,27,29,31,33,35,37,39,41,43,45,47,49,51,53,55,57,59,61,63,65,67,69,71,-1,73,-1,75,77,79,-1,81,83,85,87,89,91,93,95,97,99,101,103,105,107,-1,109,111,113,115,117,-1,-1,-1,-1,-1,-1,-1,-1,-1,-1,-1,-1,-1,-1,-1,-1,-1,-1,-1,-1,-1,-1,-1,-1,-1,-1,-1,-1,-1,-1,-1,-1,-1,-1,-1,-1,-1,-1,-1,-1,-1,-1,-1,-1,-1,-1,-1,-1,-1,-1,-1,-1,-1,-1,-1,-1],"loss_changes":[3.624063E2,6.791571E1,1.3784424E2,9.279617E0,5.124006E1,7.88866E1,1.7228903E1,1.0301773E1,1.7835045E0,1.58267E1,3.2305145E0,1.91176E1,4.597693E1,2.8763542E0,8.328431E0,7.3487854E0,1.2570614E1,1.6282158E0,1.4632416E-1,8.706054E0,1.8416355E1,2.222496E0,6.7740455E0,3.185978E1,2.1980408E1,6.889755E1,2.8662788E1,8.3460236E-1,6.641629E0,2.8755066E0,7.06976E0,8.00415E0,1.0499142E1,1.081727E1,3.0320663E0,6.659081E-1,0E0,1.2169647E-1,0E0,1.2963228E1,1.4924219E1,1.984858E1,0E0,5.803688E0,1.7187881E0,6.1775737E0,1.1653547E0,4.910507E0,2.7995556E1,2.1961132E1,3.1873405E1,3.8836823E1,2.2758621E1,1.891549E1,2.813179E1,1.558033E0,1.3286324E0,0E0,1.4987898E-1,5.75562E-1,1.901882E0,4.130808E0,1.7208151E0,0E0,0E0,0E0,0E0,0E0,0E0,0E0,0E0,0E0,0E0,0E0,0E0,0E0,0E0,0E0,0E0,0E0,0E0,0E0,0E0,0E0,0E0,0E0,0E0,0E0,0E0,0E0,0E0,0E0,0E0,0E0,0E0,0E0,0E0,0E0,0E0,0E0,0E0,0E0,0E0,0E0,0E0,0E0,0E0,0E0,0E0,0E0,0E0,0E0,0E0,0E0,0E0,0E0,0E0,0E0,0E0],"parents":[2147483647,0,0,1,1,2,2,3,3,4,4,5,5,6,6,7,7,8,8,9,9,10,10,11,11,12,12,13,13,14,14,15,15,16,16,17,17,18,18,19,19,20,20,21,21,22,22,23,23,24,24,25,25,26,26,27,27,28,28,29,29,30,30,31,31,32,32,33,33,34,34,35,35,37,37,39,39,40,40,41,41,43,43,44,44,45,45,46,46,47,47,48,48,49,49,50,50,51,51,52,52,53,53,54,54,55,55,56,56,58,58,59,59,60,60,61,61,62,62],"right_children":[2,4,6,8,10,12,14,16,18,20,22,24,26,28,30,32,34,36,38,40,42,44,46,48,50,52,54,56,58,60,62,64,66,68,70,72,-1,74,-1,76,78,80,-1,82,84,86,88,90,92,94,96,98,100,102,104,106,108,-1,110,112,114,116,118,-1,-1,-1,-1,-1,-1,-1,-1,-1,-1,-1,-1,-1,-1,-1,-1,-1,-1,-1,-1,-1,-1,-1,-1,-1,-1,-1,-1,-1,-1,-1,-1,-1,-1,-1,-1,-1,-1,-1,-1,-1,-1,-1,-1,-1,-1,-1,-1,-1,-1,-1,-1,-1,-1,-1,-1],"split_conditions":[3.4285715E0,2.142857E0,6E0,6E0,6E0,4.857143E0,4.285714E0,6E0,1E0,2.857143E0,3E0,6E0,3E0,1.1E1,5E0,1E0,1.7142857E0,1.9285715E0,3.0714285E0,1E0,1.1E1,3E0,9E0,1E0,4E0,5E0,5.357143E0,1.2E1,4E0,5.285714E0,8E0,7E0,2E0,1E1,1E0,1.1428572E0,1.6464246E-2,7.1428573E-1,-1.8137602E-2,1E0,2.0714285E0,4E0,1.1431253E-1,6E0,3E0,1E0,2E0,3.2142856E0,1E1,3E0,1.5E1,3E0,4E0,2.8E1,3E0,6E0,8E0,3.3852264E-2,4E0,4.857143E0,5E0,6E0,7E0,-5.679185E-2,7.3569617E-3,-1.2751877E-2,-4.169848E-2,-5.141294E-2,5.6590587E-2,8.6025976E-2,1.945279E-2,-1.5643239E-3,-4.7890216E-2,-1.8749341E-2,-6.972898E-2,7.217192E-2,-1.6847526E-3,-4.6138205E-2,-9.494766E-3,-6.9130347E-3,2.7552953E-2,-4.17698E-2,5.629149E-2,-6.400405E-2,-3.7362948E-2,-3.0277941E-2,7.2971806E-2,6.16377E-3,-4.3767992E-2,2.3198536E-1,6.95867E-2,6.298329E-2,-3.6244653E-2,2.5146306E-2,-1.685253E-2,1.110742E-2,7.1486436E-2,4.0528547E-2,1.7836931E-1,9.439978E-2,3.7510574E-3,6.178915E-3,1.1056049E-1,2.1659493E-1,5.9449416E-2,-7.146036E-2,-1.4992182E-2,-2.6858551E-2,-5.6631666E-2,-5.9427466E-2,-1.4149952E-2,-4.8333373E-2,-1.0757963E-2,2.691254E-2,-1.9351473E-2,7.3249206E-2,2.3242086E-3,-4.8457287E-2,1.5768582E-2],"split_indices":[3,3,7,7,7,3,4,2,2,3,4,5,7,6,6,0,3,4,4,1,2,6,5,0,7,0,4,5,4,3,6,1,1,6,7,4,0,3,0,2,4,7,0,2,3,1,6,4,6,7,5,6,6,5,6,0,6,0,0,4,0,0,0,0,0,0,0,0,0,0,0,0,0,0,0,0,0,0,0,0,0,0,0,0,0,0,0,0,0,0,0,0,0,0,0,0,0,0,0,0,0,0,0,0,0,0,0,0,0,0,0,0,0,0,0,0,0,0,0],"split_type":[0,0,0,0,0,0,0,0,0,0,0,0,0,0,0,0,0,0,0,0,0,0,0,0,0,0,0,0,0,0,0,0,0,0,0,0,0,0,0,0,0,0,0,0,0,0,0,0,0,0,0,0,0,0,0,0,0,0,0,0,0,0,0,0,0,0,0,0,0,0,0,0,0,0,0,0,0,0,0,0,0,0,0,0,0,0,0,0,0,0,0,0,0,0,0,0,0,0,0,0,0,0,0,0,0,0,0,0,0,0,0,0,0,0,0,0,0,0,0],"sum_hessian":[1.323E3,8.32E2,4.91E2,2.77E2,5.55E2,4.2E2,7.1E1,2.38E2,3.9E1,4.76E2,7.9E1,3.01E2,1.19E2,4.4E1,2.7E1,2.17E2,2.1E1,6E0,3.3E1,2.95E2,1.81E2,5.6E1,2.3E1,5E1,2.51E2,6.3E1,5.6E1,3.7E1,7E0,1.5E1,1.2E1,7.3E1,1.44E2,1.3E1,8E0,5E0,1E0,3.2E1,1E0,4.5E1,2.5E2,1.78E2,3E0,7E0,4.9E1,4E0,1.9E1,4E0,4.6E1,1.62E2,8.9E1,3.6E1,2.7E1,3.8E1,1.8E1,1.6E1,2.1E1,3E0,4E0,8E0,7E0,9E0,3E0,6.8E1,5E0,4.8E1,9.6E1,1.1E1,2E0,2E0,6E0,1E0,4E0,1E0,3.1E1,6E0,3.9E1,3.1E1,2.19E2,1.13E2,6.5E1,6E0,1E0,3.5E1,1.4E1,2E0,2E0,1E0,1.8E1,2E0,2E0,3.8E1,8E0,1.21E2,4.1E1,3.9E1,5E1,7E0,2.9E1,1.2E1,1.5E1,3.4E1,4E0,3E0,1.5E1,1.4E1,2E0,1.1E1,1E1,3E0,1E0,6E0,2E0,3E0,4E0,6E0,3E0,2E0,1E0],"tree_param":{"num_deleted":"0","num_feature":"8","num_nodes":"119","size_leaf_vector":"1"}},{"base_weights":[6.418851E-3,-2.768592E-1,8.815883E-1,-5.171149E-1,1.1546535E-1,1.0750635E0,-4.0775073E-1,-4.1712278E-1,-1.1180089E0,2.741769E-1,-7.216145E-1,9.53229E-1,2.9181743E0,-6.473432E-1,7.213844E-1,-6.8341726E-1,-2.0069876E-1,-7.1714866E-1,-1.2407631E0,6.49469E-2,6.4840674E-1,-7.834218E-1,3.672339E-2,1.6947864E0,7.4740994E-1,6.1637086E-1,3.8258948E0,-8.6611885E-1,2.2663641E-1,1.7884789E0,-2.765681E-1,-7.4514496E-1,-4.0687654E-2,-1.2732944E-1,-5.9667706E-1,-4.4390893E-1,-1.4173431E0,-1.5252173E-3,-1.2589132E0,-1.0131096E0,1.3648427E-1,1.0819116E0,-1.8110682E-3,-5.883819E-1,-1.2306745E0,2.4085999E0,4.4969258E-1,3.7466523E-1,1.1384077E0,-6.3986495E-2,1.00453936E-1,4.621356E0,1.0796337E0,3.2928735E-2,-9.4409275E-1,5.450349E-1,-2.2802079E-1,3.918638E-2,1.2006833E-1,-3.3526294E-2,2.0957899E-1,-4.7543295E-2,-2.8773611E-2,-3.0326102E-2,4.2201E-2,-4.22435E-3,-5.7569183E-2,3.591212E-2,-3.6950424E-2,-3.3836983E-2,4.729123E-2,-1.9315138E-2,-7.731453E-2,-6.360414E-2,-1.0401464E-2,-7.7962354E-2,-5.80374E-3,2.391901E-2,-4.05936E-3,7.667422E-2,8.565855E-3,-3.4328774E-2,3.1412233E-2,-3.464086E-2,8.55527E-3,1.734364E-2,-6.754754E-2,1.6245188E-1,2.2848574E-2,4.845322E-2,-4.008424E-2,8.845892E-2,1.0796741E-2,1.592429E-1,4.6518013E-2,-1.9532831E-2,1.4200623E-2,2.4711685E-1,5.133767E-2,7.930047E-2,1.9108607E-2,-3.1802885E-2,-5.6768276E-2,3.8902105E-3,3.2119576E-2,-1.6483355E-2,1.9229532E-3,1.9229532E-3,1.3795472E-2],"categories":[],"categories_nodes":[],"categories_segments":[],"categories_sizes":[],"default_left":[0,0,0,0,0,0,0,0,0,0,0,0,0,0,0,0,0,0,0,0,0,0,0,0,0,0,0,0,0,0,0,0,0,0,0,0,0,0,0,0,0,0,0,0,0,0,0,0,0,0,0,0,0,0,0,0,0,0,0,0,0,0,0,0,0,0,0,0,0,0,0,0,0,0,0,0,0,0,0,0,0,0,0,0,0,0,0,0,0,0,0,0,0,0,0,0,0,0,0,0,0,0,0,0,0,0,0,0,0],"id":15,"left_children":[1,3,5,7,9,11,13,15,17,19,21,23,25,27,29,31,33,35,37,39,41,43,-1,45,47,49,51,53,55,57,59,61,63,65,67,69,71,-1,73,75,77,79,81,83,85,87,89,91,93,95,-1,97,99,-1,101,103,105,-1,-1,-1,107,-1,-1,-1,-1,-1,-1,-1,-1,-1,-1,-1,-1,-1,-1,-1,-1,-1,-1,-1,-1,-1,-1,-1,-1,-1,-1,-1,-1,-1,-1,-1,-1,-1,-1,-1,-1,-1,-1,-1,-1,-1,-1,-1,-1,-1,-1,-1,-1],"loss_changes":[3.2848523E2,9.441217E1,8.1261795E1,3.6846222E1,5.081531E1,6.0542633E1,1.2099873E1,3.063861E1,3.4404373E0,2.5092224E1,6.0651875E0,3.9331985E1,3.316153E1,7.07969E0,9.013914E0,9.45182E0,8.523612E0,3.7712107E0,1.4113693E0,1.610239E1,3.2417297E1,4.4225883E0,0E0,4.9576447E1,3.0179367E1,5.8137884E0,2.1225143E1,4.069456E0,1.2823765E0,5.811815E-1,1.0981352E0,7.062134E0,1.1525073E1,1.0914843E1,9.139891E0,6.464385E0,2.0036411E-1,0E0,6.3495636E-1,6.187767E0,1.4550933E1,2.811007E1,2.0709005E1,3.529189E0,3.694212E0,5.7563293E1,1.5075346E1,2.3745304E1,4.0464325E1,6.7935574E-1,0E0,5.3096313E0,8.065815E-1,0E0,9.275646E-1,1.7745936E-1,1.2102549E-1,0E0,0E0,0E0,2.3440152E-2,0E0,0E0,0E0,0E0,0E0,0E0,0E0,0E0,0E0,0E0,0E0,0E0,0E0,0E0,0E0,0E0,0E0,0E0,0E0,0E0,0E0,0E0,0E0,0E0,0E0,0E0,0E0,0E0,0E0,0E0,0E0,0E0,0E0,0E0,0E0,0E0,0E0,0E0,0E0,0E0,0E0,0E0,0E0,0E0,0E0,0E0,0E0,0E0],"parents":[2147483647,0,0,1,1,2,2,3,3,4,4,5,5,6,6,7,7,8,8,9,9,10,10,11,11,12,12,13,13,14,14,15,15,16,16,17,17,18,18,19,19,20,20,21,21,23,23,24,24,25,25,26,26,27,27,28,28,29,29,30,30,31,31,32,32,33,33,34,34,35,35,36,36,38,38,39,39,40,40,41,41,42,42,43,43,44,44,45,45,46,46,47,47,48,48,49,49,51,51,52,52,54,54,55,55,56,56,60,60],"right_children":[2,4,6,8,10,12,14,16,18,20,22,24,26,28,30,32,34,36,38,40,42,44,-1,46,48,50,52,54,56,58,60,62,64,66,68,70,72,-1,74,76,78,80,82,84,86,88,90,92,94,96,-1,98,100,-1,102,104,106,-1,-1,-1,108,-1,-1,-1,-1,-1,-1,-1,-1,-1,-1,-1,-1,-1,-1,-1,-1,-1,-1,-1,-1,-1,-1,-1,-1,-1,-1,-1,-1,-1,-1,-1,-1,-1,-1,-1,-1,-1,-1,-1,-1,-1,-1,-1,-1,-1,-1,-1,-1],"split_conditions":[4E0,2.857143E0,6E0,6E0,6E0,6.285714E0,5.571429E0,2.142857E0,4E0,4E0,1E1,2E0,2E0,4.571429E0,6E0,6E0,5E0,2.3E1,1.1428572E0,3E0,1.8E1,6E0,3.672339E-2,3E0,4.428571E0,1.1E1,6E0,3E0,5.071429E0,5E0,8E0,1.9285715E0,1.7142857E0,7E0,4E0,2E1,1E0,-1.5252173E-3,3.1E1,4E0,3.0714285E0,5E0,2.6E1,1.1E1,2.5714285E0,1.7E1,8E0,4E0,4.5E0,7E0,1.00453936E-1,6.357143E0,2E0,3.2928735E-2,4E0,2E0,1E1,3.918638E-2,1.2006833E-1,-3.3526294E-2,1.1E1,-4.7543295E-2,-2.8773611E-2,-3.0326102E-2,4.2201E-2,-4.22435E-3,-5.7569183E-2,3.591212E-2,-3.6950424E-2,-3.3836983E-2,4.729123E-2,-1.9315138E-2,-7.731453E-2,-6.360414E-2,-1.0401464E-2,-7.7962354E-2,-5.80374E-3,2.391901E-2,-4.05936E-3,7.667422E-2,8.565855E-3,-3.4328774E-2,3.1412233E-2,-3.464086E-2,8.55527E-3,1.734364E-2,-6.754754E-2,1.6245188E-1,2.2848574E-2,4.845322E-2,-4.008424E-2,8.845892E-2,1.0796741E-2,1.592429E-1,4.6518013E-2,-1.9532831E-2,1.4200623E-2,2.4711685E-1,5.133767E-2,7.930047E-2,1.9108607E-2,-3.1802885E-2,-5.6768276E-2,3.8902105E-3,3.2119576E-2,-1.6483355E-2,1.9229532E-3,1.9229532E-3,1.3795472E-2],"split_indices":[3,3,7,7,7,3,3,3,6,7,2,2,2,4,0,2,2,5,4,5,5,2,0,7,4,0,2,5,4,0,0,4,3,0,5,5,0,0,5,0,4,0,5,6,4,5,0,5,4,0,0,4,0,0,4,6,0,0,0,0,0,0,0,0,0,0,0,0,0,0,0,0,0,0,0,0,0,0,0,0,0,0,0,0,0,0,0,0,0,0,0,0,0,0,0,0,0,0,0,0,0,0,0,0,0,0,0,0,0],"split_type":[0,0,0,0,0,0,0,0,0,0,0,0,0,0,0,0,0,0,0,0,0,0,0,0,0,0,0,0,0,0,0,0,0,0,0,0,0,0,0,0,0,0,0,0,0,0,0,0,0,0,0,0,0,0,0,0,0,0,0,0,0,0,0,0,0,0,0,0,0,0,0,0,0,0,0,0,0,0,0,0,0,0,0,0,0,0,0,0,0,0,0,0,0,0,0,0,0,0,0,0,0,0,0,0,0,0,0,0,0],"sum_hessian":[1.323E3,1E3,3.23E2,6.2E2,3.8E2,2.81E2,4.2E1,5.33E2,8.7E1,3.2E2,6E1,2.65E2,1.6E1,3.5E1,7E0,2.38E2,2.95E2,2.2E1,6.5E1,2.06E2,1.14E2,5.8E1,2E0,5.6E1,2.09E2,5E0,1.1E1,2.8E1,7E0,3E0,4E0,2.17E2,2.1E1,2.5E2,4.5E1,1.7E1,5E0,1E0,6.4E1,1.2E1,1.94E2,6.8E1,4.6E1,4.2E1,1.6E1,3.5E1,2.1E1,1.08E2,1.01E2,4E0,1E0,8E0,3E0,1E0,2.7E1,4E0,3E0,2E0,1E0,2E0,2E0,9.6E1,1.21E2,1.3E1,8E0,2.41E2,9E0,4E0,4.1E1,1.5E1,2E0,1E0,4E0,6.3E1,1E0,7E0,5E0,7.5E1,1.19E2,4.5E1,2.3E1,2.2E1,2.4E1,3.7E1,5E0,1E0,1.5E1,2.4E1,1.1E1,1.5E1,6E0,1E1,9.8E1,8E0,9.3E1,2E0,2E0,7E0,1E0,1E0,2E0,1.2E1,1.5E1,1E0,3E0,2E0,1E0,1E0,1E0],"tree_param":{"num_deleted":"0","num_feature":"8","num_nodes":"109","size_leaf_vector":"1"}},{"base_weights":[6.695162E-3,-3.5920963E-1,6.261911E-1,-7.233295E-1,-1.7650363E-1,8.240089E-1,-5.391904E-1,-6.4950544E-1,-1.2015493E0,-6.4524636E-2,-8.419721E-1,7.389808E-1,2.8012059E0,-8.938231E-1,5.0011814E-2,-1.0466387E0,-5.3590566E-1,-4.1493773E-3,-1.2311372E0,-5.4187793E-3,-5.4749715E-1,-9.683061E-1,-5.0684667E-1,5.02746E-1,1.150177E0,6.014059E-1,3.667672E0,-9.956732E-1,-2.9830733E-1,-4.0530044E-1,6.065491E-1,-4.4751152E-1,-1.211078E0,-4.578461E-1,-1.0861734E0,-1.2879965E0,-4.6847838E-1,-1.9756417E-1,2.0863137E-1,-8.724137E-1,3.9673454E-1,-3.948874E-1,-1.040687E0,2.434474E-1,-8.301117E-1,6.4705664E-1,1.3331286E-2,1.4373518E0,3.1806841E-1,-6.18536E-2,9.794259E-2,4.4234495E0,1.0502543E0,-1.2030843E0,-7.7047926E-1,3.210969E-2,-9.910467E-1,-7.497778E-1,3.289917E-2,9.988489E-1,-5.2583784E-1,-4.4806264E-2,3.9295033E-2,-6.6781275E-2,-3.749914E-2,-2.8569177E-2,8.021957E-3,-2.7843768E-2,-6.0113158E-2,-8.248108E-3,-6.5945104E-2,-3.956481E-2,1.2499374E-2,-5.8051487E-3,-3.5180416E-2,2.7595703E-2,-8.065019E-3,1.3884592E-2,-4.8798475E-2,-2.497841E-2,6.8220206E-2,-3.79084E-2,5.370192E-2,-5.8113605E-2,-3.3975177E-2,6.49314E-2,-1.6235871E-2,6.855601E-3,-4.4956636E-2,2.4169115E-2,6.896284E-2,5.8633607E-2,-5.6692325E-3,1.0131087E-1,4.0002942E-2,-4.9392816E-2,3.713872E-2,-1.8881734E-2,1.3727267E-2,2.3630548E-1,5.005423E-2,7.731796E-2,1.8471647E-2,-6.613263E-2,-2.2696627E-2,-2.1248486E-2,-5.229726E-2,-5.4935377E-2,-1.4010084E-2,-1.7769543E-2,-4.9710464E-2,2.57216E-2,-1.7945347E-2,6.964335E-2,2.9802562E-3,-4.477011E-2,1.4571381E-2],"categories":[],"categories_nodes":[],"categories_segments":[],"categories_sizes":[],"default_left":[0,0,0,0,0,0,0,0,0,0,0,0,0,0,0,0,0,0,0,0,0,0,0,0,0,0,0,0,0,0,0,0,0,0,0,0,0,0,0,0,0,0,0,0,0,0,0,0,0,0,0,0,0,0,0,0,0,0,0,0,0,0,0,0,0,0,0,0,0,0,0,0,0,0,0,0,0,0,0,0,0,0,0,0,0,0,0,0,0,0,0,0,0,0,0,0,0,0,0,0,0,0,0,0,0,0,0,0,0,0,0,0,0,0,0,0,0],"id":16,"left_children":[1,3,5,7,9,11,13,15,17,19,21,23,25,27,29,31,33,-1,35,37,39,41,43,45,47,49,51,53,55,57,59,61,63,65,67,69,71,73,75,77,79,81,83,85,87,89,91,93,95,97,-1,99,101,103,105,-1,107,109,111,113,115,-1,-1,-1,-1,-1,-1,-1,-1,-1,-1,-1,-1,-1,-1,-1,-1,-1,-1,-1,-1,-1,-1,-1,-1,-1,-1,-1,-1,-1,-1,-1,-1,-1,-1,-1,-1,-1,-1,-1,-1,-1,-1,-1,-1,-1,-1,-1,-1,-1,-1,-1,-1,-1,-1,-1,-1],"loss_changes":[3.0034464E2,5.5289238E1,1.1386661E2,9.034119E0,4.137795E1,6.8707275E1,1.508913E1,1.0401878E1,1.089283E0,1.3613716E1,2.8962364E0,3.876303E1,3.0197128E1,2.4323845E0,7.3409853E0,4.679592E0,7.706848E0,0E0,9.143486E-1,1.7562065E1,1.6299534E1,1.9548073E0,6.0231414E0,1.8283958E1,3.4670044E1,5.5231957E0,1.9092484E1,8.4794235E-1,5.8486214E0,2.4398649E0,6.3002906E0,7.8974986E0,1.3528595E0,1.1955223E1,7.437496E-1,8.930855E-1,1.1255484E0,9.193476E0,2.5741238E1,4.915928E0,1.2824161E1,5.0833592E0,1.4059563E0,5.217819E0,1.2581797E0,2.3301773E1,8.947381E0,3.928441E1,2.236448E1,6.3482E-1,0E0,4.5910797E0,7.797594E-1,1.0119495E0,1.554203E0,0E0,7.4790955E-2,5.1427174E-1,1.6939733E0,3.6177683E0,1.4690737E0,0E0,0E0,0E0,0E0,0E0,0E0,0E0,0E0,0E0,0E0,0E0,0E0,0E0,0E0,0E0,0E0,0E0,0E0,0E0,0E0,0E0,0E0,0E0,0E0,0E0,0E0,0E0,0E0,0E0,0E0,0E0,0E0,0E0,0E0,0E0,0E0,0E0,0E0,0E0,0E0,0E0,0E0,0E0,0E0,0E0,0E0,0E0,0E0,0E0,0E0,0E0,0E0,0E0,0E0,0E0,0E0],"parents":[2147483647,0,0,1,1,2,2,3,3,4,4,5,5,6,6,7,7,8,8,9,9,10,10,11,11,12,12,13,13,14,14,15,15,16,16,18,18,19,19,20,20,21,21,22,22,23,23,24,24,25,25,26,26,27,27,28,28,29,29,30,30,31,31,32,32,33,33,34,34,35,35,36,36,37,37,38,38,39,39,40,40,41,41,42,42,43,43,44,44,45,45,46,46,47,47,48,48,49,49,51,51,52,52,53,53,54,54,56,56,57,57,58,58,59,59,60,60],"right_children":[2,4,6,8,10,12,14,16,18,20,22,24,26,28,30,32,34,-1,36,38,40,42,44,46,48,50,52,54,56,58,